{"fc1.weight": [-0.12488672882318497, 0.0497623085975647, -0.08625226467847824, -0.09331908077001572, 0.10899084806442261, 0.07960673421621323, -0.12290612608194351, -0.08226333558559418, -0.058087997138500214, -0.08216465264558792, 0.12532652914524078, -0.1044573113322258, -0.03586648404598236, 0.12505069375038147, -0.15276941657066345, 0.04667680710554123, -0.1368052363395691, -0.15908311307430267, 0.10289280116558075, -0.04216276854276657, 0.10352785885334015, -0.12015066295862198, -0.17079022526741028, -0.11815182864665985, 0.08802972733974457, -0.05610739067196846, 0.11700097471475601, 0.07012714445590973, -0.14233803749084473, -0.12886279821395874, 0.09320179373025894, -0.17505621910095215, -0.12773334980010986, -0.011589958332479, -0.14560945332050323, -0.03352074697613716, -0.1283203363418579, -0.028466837480664253, -0.10520423948764801, 0.07920562475919724, 0.0888243168592453, -0.04339220002293587, 0.04371441900730133, 0.06957633048295975, 0.04875040054321289, 0.01811862923204899, 0.07764402776956558, 0.03452296927571297, -0.029992375522851944, 0.05411157011985779, -0.02124442532658577, -0.14118459820747375, -0.0474972128868103, 0.08331527560949326, -0.15849842131137848, 0.15453186631202698, -0.07224324345588684, 0.12531408667564392, 0.09880920499563217, -0.007790146861225367, 0.09099927544593811, -0.006859986577183008, -0.013172680512070656, -0.17116756737232208, -0.015609954483807087, -0.00010311256482964382, 0.1267540454864502, -0.09429577738046646, -0.1567820906639099, 0.05270126461982727, 0.0061188447289168835, -0.11457418650388718, -0.08978237956762314, 0.12949267029762268, -0.07435313612222672, 0.06380849331617355, 0.004231033846735954, -0.12323880940675735, -0.09513876587152481, 0.015332494862377644, 0.07254099100828171, 0.04050685465335846, -0.14235010743141174, -0.07748766243457794, 0.10954599827528, -0.03291337192058563, -0.11415193229913712, -0.04065262898802757, -0.09400477260351181, -0.1552872210741043, 0.01817554607987404, 0.020086344331502914, -0.12437387555837631, -0.1475062370300293, -0.15222559869289398, -0.07428859174251556, 0.020242800936102867, 0.11733169853687286, -0.014540973119437695, 0.11012845486402512, -0.007392517756670713, -0.12920768558979034, -0.046157605946063995, 0.10284405201673508, -0.041635069996118546, 0.12577344477176666, 0.010840148665010929, -0.041666120290756226, 0.14180195331573486, 0.10336500406265259, 0.0929151400923729, -0.10502728819847107, -0.11264622956514359, -0.08035498857498169, 0.027425389736890793, 0.09321578592061996, -0.111309714615345, 0.02444559894502163, 0.0035045896656811237, 0.02832535095512867, 0.10396064072847366, 0.10150888562202454, 0.015193034894764423, -0.07525109499692917, 0.17383776605129242, 0.030957993119955063, 0.027174893766641617, -0.0648452416062355, 0.10792780667543411, -0.05556600168347359, 0.02978835068643093, -0.035591088235378265, 0.09032067656517029, -0.08509233593940735, 0.10922692716121674, -0.05361317843198776, 0.1323525607585907, -0.13126683235168457, 0.048249900341033936, 0.10192332416772842, 0.032513439655303955, 0.0732337012887001, 0.07880544662475586, 0.052767083048820496, -0.029688842594623566, -0.1261875182390213, 0.0830090194940567, 0.04016540199518204, -0.024642864242196083, -0.022672804072499275, 0.06983659416437149, 0.0661230981349945, 0.01031139213591814, -0.11915432661771774, 0.14587582647800446, 0.08419188112020493, -0.046515610069036484, 0.0767938643693924, 0.13077007234096527, 0.056903958320617676, 0.05548829957842827, 0.14853784441947937, 0.14705981314182281, 0.08529063314199448, -0.03303718566894531, -0.03448563814163208, 0.03248898684978485, -0.006830994971096516, 0.0387328639626503, 0.07668440788984299, 0.12967106699943542, -0.00401399377733469, -0.0329812653362751, -0.04269461706280708, -0.03896501660346985, -0.15129946172237396, -0.15154032409191132, -0.12664316594600677, 0.0206497460603714, -0.13911072909832, 0.14618541300296783, 0.009633166715502739, -0.13088710606098175, -0.12754173576831818, 0.13513314723968506, 0.08177956938743591, 0.063391774892807, -0.13206416368484497, 0.07445508241653442, 0.04727424308657646, -0.09365463256835938, -0.16726435720920563, 0.017204707488417625, 0.08945778012275696, -0.0391862653195858, 0.10323470085859299, -0.11754010617733002, -0.12048177421092987, -0.17909406125545502, 0.08704478293657303, 0.055106475949287415, -0.0998762995004654, -0.04288635030388832, -0.14512848854064941, 0.020765310153365135, -0.0998157188296318, -0.1903640180826187, -0.04786095768213272, -0.08371403068304062, -0.09534265846014023, 0.11187435686588287, 0.0643155500292778, -0.1067407876253128, -0.04824121296405792, 0.018110521137714386, -0.11326807737350464, 0.044855065643787384, -0.12670840322971344, -0.057949796319007874, 0.04152810946106911, -0.11686691641807556, -0.04828012362122536, 0.08320049196481705, -0.04915464669466019, -0.09084577113389969, -0.1449623703956604, -0.08437981456518173, 0.0711718425154686, -0.15570068359375, 0.04624668136239052, -0.13684289157390594, -0.07425309717655182, -0.15918193757534027, -0.06812918186187744, -0.10769680887460709, -0.10101991146802902, 0.06681916117668152, -0.14673782885074615, -0.0450880341231823, -0.03450611233711243, -0.07688205689191818, -0.16035720705986023, 0.002744490746408701, -0.09174691885709763, -0.13233110308647156, 0.03506619483232498, -0.14305371046066284, -0.05468368902802467, 0.022595658898353577, -0.15297894179821014, 0.09788274765014648, 0.004789522383362055, -0.08781994879245758, -0.06333846598863602, 0.10955873131752014, -0.07260159403085709, 0.15445668995380402, -0.04919840395450592, 0.03364500775933266, -0.06485853344202042, -0.07692334800958633, 0.03975774720311165, -0.1490640640258789, -0.011225041933357716, -0.1191687360405922, -0.04547485336661339, 0.029912689700722694, -0.12398891150951385, 0.024102725088596344, 0.0592123381793499, -0.13702164590358734, 0.15032058954238892, -0.12276306748390198, 0.0505157969892025, -0.0731336772441864, 0.0050702025182545185, -0.13619427382946014, 0.032558005303144455, 0.0774286538362503, 0.11858012527227402, 0.04522904008626938, -0.14593760669231415, -0.1516844928264618, 0.045563314110040665, 0.14394664764404297, -0.0467088557779789, 0.02219288796186447, -0.011292226612567902, -0.14095734059810638, -0.018902761861681938, -0.06399476528167725, -0.07420679926872253, -0.13826651871204376, -0.09053587913513184, -0.006151571404188871, -0.01849590428173542, 0.1027967631816864, -0.029169468209147453, -0.0967332124710083, -0.12819252908229828, 0.06386072933673859, -0.023445550352334976, 0.1403285712003708, 0.025243481621146202, -0.07438816875219345, 0.011518304236233234, -0.006318321917206049, -0.09805837273597717, -0.03325214609503746, 0.03069048747420311, -0.07972531020641327, 0.037820152938365936, 0.02556697651743889, 0.11661095917224884, 0.035022277384996414, -0.08463498204946518, 0.08839761465787888, 0.07762571424245834, 0.11951064318418503, -0.1444011628627777, -0.07469596713781357, 0.03633866086602211, 0.014181595295667648, 0.015192672610282898, -0.018107108771800995, -0.0361802913248539, 0.12566669285297394, -0.02026854082942009, -0.13303428888320923, -0.14914608001708984, 0.011699399910867214, 0.052674174308776855, 0.06239277496933937, -0.13008002936840057, -0.11294983327388763, -0.1292286366224289, -0.11931181699037552, -0.09165877103805542, -0.15359297394752502, -0.14241352677345276, -0.09987480193376541, 0.10213592648506165, 0.07968607544898987, -0.012656270526349545, -0.06552902609109879, 0.10224863141775131, -0.04061935096979141, -0.07390830665826797, 0.13302116096019745, -0.0006652041920460761, 0.088520847260952, -0.030467813834547997, 0.036457259207963943, 0.033284954726696014, -0.11691146343946457, -0.0723104327917099, -0.04953264817595482, -0.037429001182317734, -0.07133397459983826, -0.10016318410634995, 0.06870795041322708, 0.140079528093338, 0.13953696191310883, -0.1348314732313156, -0.08431903272867203, -0.14015910029411316, 0.0847063958644867, -0.1456802636384964, -0.07576525211334229, -0.1610357016324997, -0.04821078106760979, 0.07265443354845047, 0.09282899647951126, -0.0898614153265953, 0.06780850142240524, -0.08580052852630615, -0.11740496754646301, 0.04272349551320076, 0.13619865477085114, 0.0659421905875206, -0.056482572108507156, -0.11474713683128357, -0.04779905825853348, -0.11511287093162537, 0.03865796700119972, 0.0893995612859726, -0.023747719824314117, 0.11426640301942825, -0.13050712645053864, 0.06102684140205383, 0.02874874696135521, -0.01656797155737877, -0.07925967872142792, 0.16778601706027985, 0.015105679631233215, -0.09308771044015884, 0.07164433598518372, 0.15571585297584534, 0.09944870322942734, 0.030725423246622086, 0.09302689135074615, 0.03067723661661148, 0.14736120402812958, 0.12153439968824387, 0.1724853217601776, -0.13721007108688354, 0.08415642380714417, 0.12023261189460754, -0.11167216300964355, -0.013385619968175888, -0.12102876603603363, 0.07097066193819046, 0.1399305760860443, 0.12834593653678894, 0.14893460273742676, 0.18493735790252686, -0.025667764246463776, -0.03840531408786774, 0.05687279999256134, 0.046683069318532944, 0.07042323052883148, 0.02107337675988674, 0.13207395374774933, 0.08521849662065506, -0.1285577118396759, 0.013690387830138206, -0.09828872978687286, -0.1097346618771553, -0.07807337492704391, -0.0617365762591362, 0.12256345897912979, -0.10523075610399246, 0.07875824719667435, -0.008903604932129383, -0.03763488307595253, 0.012309009209275246, -0.09930320084095001, 0.04028772935271263, -0.02686079777777195, -0.13816030323505402, 0.10269621759653091, 0.12628984451293945, -0.04818149283528328, -0.04881104454398155, -0.02258697897195816, 0.033527132123708725, 0.1510424166917801, 0.1352842152118683, 0.15678180754184723, 0.06655095517635345, -0.08520358800888062, 0.14846593141555786, 0.14736150205135345, 0.05875780060887337, -0.13048003613948822, 0.18897180259227753, 0.17288462817668915, -0.07574097067117691, 0.08488862216472626, 0.13311797380447388, -0.050501689314842224, 0.15720415115356445, -0.11117551475763321, -0.05309795215725899, -0.05630111321806908, 0.07854993641376495, 0.04293718934059143, -0.045960135757923126, -0.028033195063471794, 0.030748100951313972, 0.03402716666460037, -0.14557693898677826, 0.04640824347734451, -0.07429468631744385, 0.07624997943639755, -0.017227431759238243, 0.10372757166624069, 0.010802242904901505, -0.08394071459770203, -0.0727149173617363, -0.10082735866308212, -0.06866490840911865, -0.017010191455483437, 0.1714731603860855, 0.1318560689687729, -0.12081525474786758, -0.03317462280392647, -0.0480244942009449, 0.10069966316223145, -0.06013386696577072, -0.08466316759586334, -0.04453478381037712, -0.02912815660238266, 0.08817732334136963, 0.0927199274301529, 0.16337282955646515, 0.04005002602934837, -0.010575627908110619, 0.08334425091743469, 0.09897330403327942, 0.06100311875343323, 0.1358734369277954, 0.15235978364944458, -0.07860619574785233, 0.12990537285804749, 0.127009317278862, 0.1353333741426468, -0.10665953159332275, -0.11978708207607269, -0.07890361547470093, -0.1242121160030365, -0.0773051530122757, 0.08412861078977585, -0.03034447878599167, 0.007925438694655895, -0.10191366821527481, 0.09805901348590851, -0.1087862029671669, -0.04263783246278763, -0.08332027494907379, -0.0637640431523323, 0.1094934418797493, -0.10144809633493423, -0.08861000090837479, 0.12105385959148407, -0.06999165564775467, -0.028285827487707138, -0.07041262090206146, -0.049698811024427414, -0.014917413704097271, -0.14530140161514282, 0.07649613916873932, -0.06650897115468979, 0.09751959890127182, 0.04582946375012398, 0.08478850871324539, -0.02093670889735222, -0.15611416101455688, 0.1042085587978363, -0.17104855179786682, 0.043985165655612946, 0.06311994791030884, -0.171492800116539, -0.055686429142951965, -0.08469704538583755, -0.11119414120912552, -0.15659166872501373, -0.09775076806545258, -0.10136312991380692, 0.07190410047769547, 0.13501621782779694, -0.039052169770002365, -0.060431648045778275, -0.0769287571310997, -0.03148849308490753, 0.07176846265792847, -0.03504372760653496, -0.0806397870182991, -0.14276595413684845, -0.05575115233659744, 0.011475765146315098, -0.1493733525276184, -0.1592111736536026, 0.021484877914190292, 0.09557457268238068, -0.13272704184055328, -0.0796986073255539, 0.09715907275676727, 0.11382514238357544, -0.09451624751091003, 0.07688919454813004, -0.15081612765789032, -0.0037532285787165165, 0.12848584353923798, -0.10214389115571976, 0.13112883269786835, -0.1639905869960785, 0.12457538396120071, -0.0009595069568604231, 0.10734786093235016, -0.034995436668395996, -0.13283342123031616, -0.15093621611595154, -0.11593995243310928, 0.016162065789103508, -0.005913876928389072, -0.12192404270172119, -0.011281775310635567, 0.06840652227401733, 0.15714025497436523, 0.019834211096167564, -0.06262686103582382, -0.03791486471891403, 0.0776013731956482, 0.07004225254058838, 0.16445466876029968, -0.11106310039758682, -0.11973918229341507, 0.13464057445526123, 0.038170311599969864, 0.03645557910203934, 0.0952397882938385, 0.17351074516773224, 0.10167474299669266, -0.12640227377414703, -0.07850633561611176, -0.05191390588879585, 0.01617850363254547, 0.158510223031044, 0.057925064116716385, 0.08002252876758575, 0.13371287286281586, 0.04058684781193733, 0.08029705286026001, -0.10954553633928299, -0.01746446266770363, 0.15543334186077118, 0.08598798513412476, 0.06530161201953888, 0.05487625673413277, -0.03887910768389702, 0.012331590987741947, 0.07194465398788452, 0.19215406477451324, -0.057641446590423584, 0.11351349204778671, -0.09472494572401047, 0.01673736982047558, -0.038832101970911026, 0.08950088918209076, 0.1319177746772766, -0.13757802546024323, -0.07061630487442017, -0.05809160694479942, 0.09759723395109177, 0.014736245386302471, -0.11154763400554657, 0.1346239447593689, -0.037499427795410156, -0.017132453620433807, 0.03474315628409386, -0.11643022298812866, -0.020371608436107635, -0.08027627319097519, -0.08678501099348068, 0.16109557449817657, -0.01206634659320116, -0.011584583669900894, -0.08155351877212524, -0.019394535571336746, -0.019612213596701622, -0.03259308263659477, -0.04284396767616272, 0.0845201313495636, 0.10359041392803192, 0.09022838622331619, 0.019089756533503532, 0.14023539423942566, -0.0188954696059227, 0.03818247839808464, -0.04372711107134819, 0.055576007813215256, 0.08632153272628784, -0.04821181297302246, 0.03059224970638752, 0.1827835589647293, -0.11510019749403, 0.08721430599689484, 0.04621198773384094, 0.14266984164714813, 0.014718365855515003, 0.08928599208593369, -0.005956524517387152, 0.010257286950945854, -0.09592537581920624, -0.09019216150045395, 0.12017003446817398, -0.1396860033273697, -0.08785035461187363, -0.00847542379051447, 0.041366033256053925, 0.04217853397130966, 0.013205829076468945, -0.0019473136635497212, -0.11258494853973389, 0.046753935515880585, -0.05686691403388977, 0.10867518186569214, -0.010259632021188736, 0.09763746708631516, 0.12784065306186676, -0.08302697539329529, -0.12192036956548691, -0.17763623595237732, 0.0032274541445076466, 0.0802014023065567, -0.08632931113243103, 0.11969088762998581, 0.12334272265434265, -0.0426446869969368, -0.08355078846216202, 0.005048797000199556, -0.17024904489517212, 0.12299121916294098, -0.037167739123106, -0.16853629052639008, 0.022510966286063194, -0.19313478469848633, -0.0934675857424736, 0.016218481585383415, -0.07531081140041351, -0.021577123552560806, -0.13181506097316742, -0.04752279445528984, -0.1581435352563858, 0.01868518814444542, -0.027557194232940674, 0.1167321652173996, 0.1221005767583847, 0.1145598515868187, -0.02114647440612316, -0.12774084508419037, -0.05537870153784752, -0.0835297703742981, -0.04474936053156853, -0.043257735669612885, -0.04897507652640343, 0.0012762261321768165, 0.027501579374074936, -0.009325812570750713, 0.03386932983994484, 0.11565807461738586, -0.12250090390443802, -0.16247791051864624, -0.16067475080490112, -0.028763942420482635, 0.04348967224359512, 0.12796035408973694, 0.1169658899307251, -0.05822636932134628, -0.0942787453532219, 0.09623462706804276, -0.10959591716527939, 0.05968852341175079, 0.09259603172540665, 0.04197388142347336, 0.1204710528254509, -0.15042246878147125, 0.06540508568286896, -0.0815143957734108, -0.1840149462223053, -0.013869321905076504, -0.15613344311714172, -0.18355870246887207, -0.13896767795085907, -0.042230553925037384, 0.13906502723693848, -0.13494573533535004, -0.031275149434804916, 0.12611374258995056, -0.12565375864505768, -0.04950811713933945, 0.08686459064483643, -0.09377698600292206, 0.03393423184752464, 0.02293516881763935, 0.04858335480093956, -0.00652942294254899, 0.0803183987736702, 0.004689071327447891, 0.08099567145109177, -0.12413480132818222, -0.04172847047448158, -0.010318639688193798, 0.1343802958726883, 0.030531389638781548, 0.14140544831752777, 0.1750098317861557, -0.12331365048885345, 0.01527233887463808, 0.10463860630989075, 0.048524409532547, 0.023514797911047935, -0.13843010365962982, 0.01460985280573368, -0.11485830694437027, 0.0023503033444285393, 0.035212501883506775, -0.032821860164403915, -0.13179320096969604, 0.08047953993082047, 0.06858767569065094, -0.014331457205116749, 0.0848504826426506, 0.04959339275956154, 0.11469695717096329, -0.11577705293893814, 0.014971362426877022, 0.12792350351810455, -0.004376974888145924, 0.0057915146462619305, -0.04472832381725311, 0.05481155216693878, -0.14338290691375732, -0.11537080258131027, -0.07761568576097488, 0.045029379427433014, 0.061084944754838943, -0.07665711641311646, 0.10335685312747955, -0.10368429869413376, 0.005148044787347317, -0.06755729019641876, -0.13641779124736786, 0.1571640968322754, 0.06910757720470428, 0.11793806403875351, 0.15822720527648926, -0.09381645917892456, -0.07544314861297607, -0.0829935148358345, -0.051304757595062256, 0.12290289998054504, 0.05842061713337898, 0.07162369787693024, -0.08090022951364517, 0.13979022204875946, 0.10331954807043076, 0.008110253140330315, -0.022581571713089943, 0.11206309497356415, 0.1475764811038971, 0.09852857887744904, 0.05891764536499977, -0.013284123502671719, 0.057599026709795, 0.17374257743358612, 0.016676153987646103, 0.11598922312259674, 0.1659104973077774, 0.013731629587709904, -0.04269219934940338, -0.10433395951986313, -0.13951091468334198, -0.1108892410993576, 0.1530938297510147, -0.0213894322514534, 0.14685803651809692, -0.10113762319087982, 0.1550862044095993, -0.03874681890010834, 0.01709790714085102, 0.11596295982599258, 0.01054487656801939, -0.11950834840536118, -0.051963962614536285, 0.11884110420942307, -0.051919665187597275, -0.1005890816450119, 0.019684188067913055, 0.06543688476085663, -0.05797805264592171, -0.06067828834056854, 0.08541610836982727, 0.027524691075086594, -0.06943952292203903, 0.058164503425359726, 0.12226931750774384, 0.0023382140789180994, -0.029609695076942444, 0.08658959716558456, 0.10591239482164383, -0.1321108192205429, 0.08604197949171066, 0.06573881208896637, 0.1904877871274948, -0.005170613992959261, 0.08571277558803558, -0.051924929022789, -0.016248904168605804, 0.1823888123035431, 0.19234491884708405, 0.12301903963088989, 0.06559556722640991, -0.09447172284126282, -0.08372977375984192, -0.05914384499192238, 0.13610194623470306, 0.02098683826625347, -0.05738598853349686, 0.14925597608089447, -0.11205978691577911, -0.12971548736095428, 0.06826148182153702, -0.09918680787086487, 0.02268100716173649, 0.003846751293167472, 0.0925208032131195, 0.1346726268529892, 0.16362729668617249, 0.08292094618082047, 0.08927270025014877, -0.04127993434667587, 0.083729088306427, 0.14556793868541718, 0.07963982969522476, 0.14788036048412323, -0.09484516084194183, -0.0001558271615067497, -0.07475847750902176, 0.10145304352045059, 0.16550132632255554, 0.10167497396469116, 0.04542636498808861, 0.06061888113617897, -0.06016219034790993, 0.05371620133519173, -0.02387232705950737, 0.14707674086093903, 0.13726311922073364, 0.016977665945887566, 0.13833726942539215, 0.06795510649681091, 0.16985757648944855, -0.16155436635017395, 0.12422122806310654, 0.028059635311365128, 0.145915687084198, 0.07674989849328995, 0.14075183868408203, 0.09163869172334671, -0.07065805792808533, -0.0718078464269638, 0.014168873429298401, 0.1573082059621811, -0.024606872349977493, -0.0799761414527893, -0.11165875941514969, -0.024395892396569252, 0.058735135942697525, -0.13214288651943207, -0.07159297168254852, 0.06423677504062653, -0.10546823590993881, 0.08133381605148315, -0.13854944705963135, 0.11181435734033585, -0.14285551011562347, -0.11917915940284729, -0.10714554786682129, 0.13332350552082062, 0.08865299075841904, -0.1376134753227234, 0.03377680480480194, -0.039082083851099014, 0.12667763233184814, 0.040833860635757446, -0.13153108954429626, -0.06595707684755325, -0.029377050697803497, -0.17127543687820435, -0.02922672964632511, -0.06217271462082863, 0.04325908422470093, 0.010803429409861565, -0.010147327557206154, 0.04692588001489639, 0.006751608569175005, -0.1393599957227707, -0.13779865205287933, 0.07465328276157379, 0.13743141293525696, 0.0011262277839705348, -0.010252056643366814, 0.10105370730161667, -0.16071568429470062, 0.13133791089057922, 0.026590943336486816, 0.009752774611115456, 0.027524380013346672, 0.09691441059112549, -0.1391410231590271, -0.02404809184372425, 0.07573690265417099, -0.08336076140403748, -0.159287691116333, -0.05819376930594444, -0.024723529815673828, 0.04846026748418808, 0.0011322286445647478, -0.0728365033864975, -0.07073754072189331, -0.05909508466720581, -0.11036287993192673, -0.020902298390865326, 0.02110769785940647, -0.030062323436141014, -0.14708033204078674, -0.10721960663795471, -0.13078297674655914, 0.08968299627304077, -0.0497477687895298, -0.030848272144794464, 0.11825622618198395, 0.04927092045545578, -0.1246308833360672, -0.023718036711215973, -0.12267250567674637, -0.06799018383026123, 0.000922441016882658, 0.13885413110256195, 0.08128108084201813, 0.08873017132282257, -0.1385585367679596, -0.06306798756122589, -0.10809376090765, -0.062133029103279114, -0.14365391433238983, -0.05539660155773163, -0.0011215312406420708, 0.01866442896425724, -0.13509495556354523, -0.032253678888082504, 0.05265170335769653, 0.14423325657844543, 0.1344779133796692, 0.05250617116689682, -0.041864410042762756, 0.07896367460489273, -0.051902491599321365, 0.0433422215282917, -0.03153159096837044, 0.14791269600391388, 0.11520599573850632, -0.00029371216078288853, -0.1001330092549324, 0.0901617631316185, 0.0003069683152716607, -0.05084594711661339, -0.10637106001377106, 0.045550841838121414, 0.15172836184501648, -0.057304155081510544, 0.014622100628912449, 0.11540748178958893, -0.012994223274290562, -0.02889951504766941, 0.004605860449373722, 0.040582649409770966, 0.10384103655815125, 0.023103754967451096, 0.05554190278053284, -0.1578487753868103, 0.12401484698057175, -0.04835160821676254, 0.0909283235669136, 0.030719323083758354, -0.03313223645091057, -0.05109371244907379, 0.06931930780410767, 0.11095497012138367, -0.045668672770261765, 0.057009659707546234, 0.08567441999912262, -0.09000507742166519, 0.016997097060084343, 0.05916851758956909, 0.07201523333787918, 0.05744600296020508, -0.1280430406332016, 0.10175907611846924, -0.05545647069811821, 0.08875874429941177, -0.09794378280639648, -0.15815679728984833, -0.03557697683572769, 0.05853298306465149, -0.12289214134216309, -0.19552108645439148, 0.08206062763929367, -0.1343977302312851, -0.16167911887168884, 0.01993655040860176, 0.0935673788189888, -0.17396800220012665, 0.06425825506448746, -0.014857763424515724, 0.06614786386489868, 0.09974154829978943, -0.11881846189498901, -0.14686894416809082, -0.09136952459812164, -0.10248978435993195, -0.03786347806453705, 0.1281326413154602, -0.13815629482269287, 0.04364851862192154, 0.1399391144514084, -0.053760405629873276, 0.10264117270708084, -0.10596013069152832, 0.039874207228422165, -0.06523319333791733, -0.0525154247879982, 0.03682074695825577, -0.03267154470086098, -0.048469867557287216, 0.12666429579257965, 0.14434221386909485, 0.027779022231698036, -0.008409013971686363, 0.13584952056407928, -0.09790228307247162, 0.0449637807905674, -0.13870276510715485, -0.13830110430717468, 0.07750938832759857, 0.03565344214439392, 0.05301481857895851, 0.03427770733833313, -0.14469221234321594, -0.02580307051539421, -0.044988978654146194, -0.025623168796300888, -0.09203534573316574, -0.008007836528122425, 0.09760291874408722, -0.05553625151515007, 0.04816609248518944, -0.09679118543863297, 0.03892228752374649, 0.033767521381378174, -0.02821415849030018, -0.056878674775362015, -0.10567078739404678, -0.12126103788614273, -0.016138192266225815, -0.07487741857767105, -0.12406398355960846, 0.137004092335701, 0.07600682973861694, -0.006996639538556337, 0.06043273210525513, 0.11787974834442139, -0.015277049504220486, -0.013442447409033775, -0.14074170589447021, -0.0995512381196022, -0.02884213998913765, 0.0510358065366745, -0.07698085159063339, -0.0811508446931839, -0.0024430262856185436, -0.10427547246217728, 0.014916841872036457, 0.18798920512199402, 0.044169120490550995, 0.01603936403989792, 0.12619079649448395, -0.03890392184257507, -0.05586385726928711, 0.0185495987534523, 0.1691383272409439, 0.1745089441537857, 0.05563056841492653, 0.1634327918291092, 0.07866732776165009, -0.015995219349861145, 0.009406347759068012, 0.1737767457962036, 0.16208942234516144, -0.0566958487033844, -0.039425257593393326, 0.10667110234498978, 0.011832050047814846, 0.14875951409339905, -0.07250548899173737, 0.06722638010978699, 0.06788419187068939, -0.1455511897802353, 0.03378650173544884, -0.059524405747652054, -0.11984128504991531, 0.054649852216243744, 0.025136439129710197, 0.014158285222947598, 0.12072738260030746, -0.09904324263334274, 0.14209124445915222, 0.061596453189849854, 0.12275736033916473, -0.11812745779752731, -0.15380947291851044, -0.06517299264669418, 0.10143928229808807, -0.006469418294727802, 0.03376012295484543, -0.08465839177370071, 0.09514378011226654, -0.024541417136788368, 0.06260272115468979, 0.029393263161182404, 0.0799422636628151, -0.13642463088035583, -0.09922213107347488, -0.09485093504190445, -0.013501620851457119, 0.07603471726179123, 0.10666067153215408, 0.11284922808408737, 0.09148348867893219, -0.11293883621692657, -0.105876624584198, -0.02932700887322426, 0.03143032267689705, -0.11069320142269135, -0.1373835653066635, -0.10934791713953018, -0.09307049214839935, -0.1348864585161209, 0.13193625211715698, -0.026734421029686928, -0.13906654715538025, -0.00020609109196811914, -0.04509105160832405, 0.06663531810045242, -0.06839358806610107, 0.0036890830378979445, -0.018264098092913628, -0.11373259127140045, 0.15408247709274292, 0.15795619785785675, -0.095731221139431, 0.11709824949502945, 0.0477113202214241, -0.12675105035305023, 0.07248437404632568, -0.1287531703710556, 0.05152037367224693, 0.1503835767507553, -0.04840339720249176, 0.03289563208818436, -0.04415871575474739, 0.08909860998392105, 0.05324382334947586, -0.02863776497542858, 0.15004613995552063, -0.1320359855890274, 0.05625417083501816, 0.03388064727187157, -0.09532758593559265, 0.004533178638666868, -0.1205335184931755, 0.012175454758107662, -0.01255811471492052, 0.1676340401172638, -0.09770333021879196, 0.13306961953639984, 0.08940466493368149, -0.05010811984539032, 0.014498116448521614, 0.02218170091509819, 0.00379762751981616, 0.05899227038025856, 0.038857050240039825, 0.039771661162376404, -0.03485172614455223, 0.03304844722151756, -0.06285200268030167, -0.028979815542697906, 0.05988488718867302, -0.01796386018395424, 0.09846465289592743, 0.12052659690380096, 0.046039991080760956, 0.11178701370954514, -0.037710245698690414, 0.03522080183029175, -0.08146422356367111, 0.027809016406536102, 8.845461707096547e-05, -0.14379367232322693, -0.006542908027768135, -0.05173347890377045, 0.07693255692720413, 0.0478234626352787, -0.02100086770951748, 0.13287721574306488, -0.01339008565992117, 0.017881570383906364, 0.12254921346902847, 0.12377835065126419, 0.04066062346100807, -0.12785135209560394, -0.0379827544093132, -0.004565105307847261, -0.11347676068544388, 0.04847721382975578, -0.004028913099318743, -0.1279379427433014, -0.015959303826093674, -0.015772607177495956, 0.1255592405796051, -0.0038064841646701097, -0.05957074463367462, 0.04969927668571472, 0.09572184085845947, 0.059253450483083725, 0.15525129437446594, 0.15049074590206146, 0.15413601696491241, -0.02743331715464592, 0.051730502396821976, 0.004204198252409697, -0.03624219447374344, -0.048466287553310394, -0.0782746896147728, -0.12253260612487793, 0.09550662338733673, 0.00690363347530365, 0.024198617786169052, 0.0037041758187115192, 0.10416997969150543, -0.07889740914106369, -0.04293544217944145, 0.03970305249094963, 0.052907466888427734, 0.16157740354537964, -0.05087963864207268, -0.12384559959173203, 0.20049859583377838, -0.05162839591503143, -0.0408206470310688, 0.08563772588968277, 0.004404060076922178, 0.05339980497956276, 0.028877362608909607, -0.03907880559563637, 0.1351156085729599, 0.08168605715036392, 0.18099969625473022, -0.06884969770908356, -0.01573283039033413, 0.14620409905910492, -0.15390300750732422, 0.14742667973041534, -0.049962546676397324, 0.04522189870476723, 0.05816781148314476, -0.0299916360527277, -0.15326109528541565, 0.08312647044658661, -0.09937814623117447, 0.08173616975545883, 0.017583683133125305, 0.07529903948307037, 0.07341981679201126, -0.12323988229036331, 0.08500120043754578, 0.023467805236577988, 0.025379886850714684, -0.11850569397211075, 0.07133359462022781, 0.01751633733510971, -0.09847085177898407, -0.020338784903287888, 0.11942266672849655, 0.136472687125206, -0.10184381902217865, 0.04408659040927887, 0.09808876365423203, -0.041034996509552, 0.049032483249902725, 0.0712994933128357, 0.04425529018044472, 0.10514619946479797, 0.021710913628339767, -0.13442835211753845, -0.1294470876455307, 0.16613991558551788, 0.1271924078464508, 0.08510340750217438, -0.004898824263364077, 0.12883828580379486, -0.1262577325105667, -0.009967062622308731, 0.1448586881160736, -0.045204754918813705, 0.051554836332798004, -0.09631144255399704, 0.018604913726449013, -0.12869900465011597, 0.13842818140983582, -0.08076038211584091, 0.09659107774496078, -0.04454079270362854, -0.00019127543782815337, 0.07395824044942856, 0.018766574561595917, 0.12471745163202286, 0.06370532512664795, -0.01863918825984001, -0.012261301279067993, -0.07866071909666061, -0.06609385460615158, -0.059210460633039474, 0.11194361001253128, -0.11328143626451492, -0.06011427938938141, 0.14898383617401123, -0.07825536280870438, 0.16130726039409637, -0.1355583518743515, 0.032538291066884995, 0.1854425072669983, 0.04575430229306221, -0.10341791063547134, 0.09592518955469131, 0.005391273181885481, 0.022683873772621155, -0.06411494314670563, 0.1920652538537979, 0.008753679692745209, 0.16746297478675842, 0.06541494280099869, -0.06589984893798828, 9.823726577451453e-05, 0.15866078436374664, 0.002422044984996319, 0.005604865495115519, -0.09652338922023773, 0.02320285513997078, -0.10916529595851898, -0.10129880905151367, 0.06661826372146606, 0.1750694364309311, -0.05188560113310814, -0.11289627850055695, -0.057966385036706924, -0.07830166071653366, 0.15367630124092102, 0.03855256736278534, 0.11094354838132858, 0.02341301366686821, -0.060349103063344955, -0.05007677897810936, 0.12526117265224457, 0.09104659408330917, 0.030577629804611206, -0.11942218244075775, 0.042387742549180984, 0.09543595463037491, -0.1049186959862709, 0.12016106396913528, -0.10785874724388123, -0.10180041939020157, -0.050359707325696945, 0.13847655057907104, 0.088752381503582, -0.12262760102748871, 0.060205377638339996, 0.17356331646442413, 0.11018622666597366, -0.07995901256799698, -0.005741161294281483, 0.19466404616832733, -0.09638989716768265, 0.17630784213542938, -0.08323267102241516, 0.012397299520671368, -0.056044917553663254, -0.1028577908873558, 0.10311435163021088, 0.02904222346842289, -0.029098225757479668, -0.15064537525177002, 0.07272278517484665, -0.057781703770160675, -0.15220655500888824, 0.018508324399590492, 0.10361874848604202, 0.1289496123790741, 0.09811997413635254, 0.031891196966171265, -0.017234671860933304, 0.06905309855937958, -0.058654338121414185, -0.044454142451286316, -0.14574964344501495, 0.028431786224246025, -0.15153272449970245, -0.1588086038827896, -0.13226161897182465, -0.13742785155773163, -0.16101424396038055, -0.03391166776418686, -0.15817652642726898, -0.13757216930389404, -0.08949744701385498, -0.12709535658359528, 0.03408561274409294, -0.06987403333187103, -0.03396812826395035, -0.12884148955345154, -0.03687046840786934, 0.009989011101424694, -0.12467285245656967, -0.021759264171123505, 0.09246105700731277, 0.12943358719348907, 0.10102074593305588, -0.052582964301109314, -0.046913668513298035, -0.0263297650963068, -0.02961067110300064, -0.035816483199596405, -0.0026479759253561497, 0.023833293467760086, 0.062279112637043, 0.11947353184223175, 0.0417604073882103, -0.07686373591423035, 0.0026723474729806185, -0.043438732624053955, 0.12735296785831451, 0.04742107540369034, -0.09283837676048279, -0.135240375995636, -0.004057120066136122, -0.02685248665511608, -0.16245485842227936, -0.16746045649051666, 0.011185571551322937, -0.059985820204019547, 0.033130716532468796, -0.16420742869377136, 0.05550413951277733, -0.11079755425453186, 0.09675267338752747, 0.04877230152487755, -0.09444180130958557, -0.08031085878610611, -0.17476578056812286, 0.0727582722902298, 0.01811448112130165, 0.05315890908241272, -0.15836167335510254, 0.060834724456071854, -0.15292644500732422, -0.037320081144571304, 0.0858076885342598, -0.061559829860925674, 0.07156014442443848, -0.039079807698726654, -0.13393698632717133, 0.11059509217739105, 0.032573550939559937, 0.1404922902584076, 0.07751432061195374, 0.11868201941251755, -0.05741550028324127, 0.11380216479301453, 0.07012796401977539, 0.02131439931690693, -0.07896345108747482, -0.053316932171583176, 0.13957835733890533, -0.1318768411874771, 0.07368601113557816, -0.07679541409015656, 0.06696148961782455, -0.08852597326040268, -0.02039393223822117, -0.08916382491588593, 0.08470933884382248, -0.09414863586425781, 0.11872677505016327, -0.07774282246828079, -0.11761119961738586, -0.011226379312574863, -0.08436335623264313, 0.029600434005260468, -0.12564119696617126, 0.04046449810266495, -0.11880667507648468, -0.01851177029311657, -0.048212263733148575, 0.041713833808898926, 0.0030799300875514746, -0.11026076972484589, 0.10102076828479767, 0.09083118289709091, 0.12145857512950897, -0.035036247223615646, 0.06968624889850616, 0.03258280083537102, -0.14960891008377075, 0.10952477902173996, 0.1428159922361374, -0.14151139557361603, -0.03153257071971893, -0.049008943140506744, -0.034822769463062286, 0.08469492197036743, 0.0969950333237648, -0.09205728769302368, -0.14292627573013306, 0.1228964775800705, 0.028196880593895912, 0.021284794434905052, -0.182142972946167, 0.13917019963264465, 0.08852241933345795, 0.12629500031471252, 0.05072242394089699, -0.10757053643465042, -0.003207347821444273, -0.06238716095685959, -0.049932435154914856, 0.09778455644845963, 0.05375407263636589, -0.07225840538740158, -0.10172876715660095, -0.14641010761260986, -0.08107880502939224, 0.11176246404647827, 0.03762427344918251, 0.028327811509370804, 0.08166249841451645, -0.07658544182777405, 0.12660573422908783, -0.0014408492716029286, -0.0546329990029335, 0.040158458054065704, 0.007672823034226894, -0.12177887558937073, 0.022684326395392418, -0.16122683882713318, -0.13726367056369781, 0.062311891466379166, 0.12844116985797882, 0.053713444620370865, -0.14365684986114502, -0.04219786077737808, 0.09513810276985168, 0.07512855529785156, -0.04935512691736221, 0.057289574295282364, 0.09371780604124069, 0.10272037982940674, 0.019180525094270706, 0.051156170666217804, -0.05836242437362671, -0.0764743760228157, -0.04951948672533035, -0.05130165070295334, -0.16834917664527893, 0.12188495695590973, -0.0015457089757546782, 0.10353048890829086, -0.08320804685354233, -0.12376294285058975, 0.08830209821462631, -0.05225206911563873, 0.011235368438065052, -0.1439245343208313, -0.18617865443229675, -0.14589600265026093, 0.06296277791261673, 0.08521214872598648, -0.022571995854377747, 0.02818392962217331, -0.14607711136341095, -0.1273467242717743, -0.09998679906129837, -0.12069610506296158, -0.1086730882525444, -0.10835866630077362, -0.10020928084850311, -0.1863655149936676, -0.06062955781817436, 0.07037591189146042, 0.08069635182619095, 0.0900077074766159, -0.09090273827314377, 0.14791718125343323, -0.10547295212745667, -0.009153931401669979, 0.055585335940122604, 0.03144175559282303, 0.13751034438610077, -0.009734757244586945, 0.050879787653684616, 0.026404766365885735, -0.1331578642129898, 0.03363441303372383, 0.031285423785448074, 0.1396089345216751, 0.06104283034801483, 0.1536947339773178, 0.018488166853785515, -8.470306784147397e-05, 0.058382511138916016, -0.03429006412625313, -0.11068317294120789, -0.04116382822394371, 0.06274257600307465, -0.055963385850191116, -0.11075080186128616, -0.02671302855014801, -0.10535003989934921, -0.14572596549987793, -0.0026585448067635298, -0.09256915003061295, 0.07045342028141022, -0.04812079295516014, -0.14678093791007996, -0.11246158927679062, 0.02940845489501953, 0.012422794476151466, 0.04171574115753174, -0.13811951875686646, -0.12978634238243103, -0.14657416939735413, -0.015485507436096668, -0.07800597697496414, 0.07674358040094376, -0.024592731148004532, -0.048722732812166214, -0.12882670760154724, 0.012177337892353535, 0.002757130190730095, -0.05540035292506218, 0.07779216766357422, -0.040002670139074326, -0.034362126141786575, -0.08449488878250122, 0.03599679097533226, -0.07371407747268677, -0.07293859124183655, 0.06940854340791702, -0.09608229249715805, 0.09428442269563675, -0.09160567820072174, 0.11902158707380295, 0.008145103231072426, -0.14425410330295563, -0.06746596843004227, 0.0382658950984478, 0.0273492019623518, -0.039821699261665344, 0.06360337883234024, -0.15898926556110382, 0.07877045124769211, 0.11393944919109344, -0.08650664985179901, 0.07830480486154556, -0.1591411978006363, -0.1065925657749176, -0.03734706714749336, -0.1315772831439972, -0.01682194136083126, -0.1479419469833374, -0.09733033925294876, -0.09415385127067566, 0.10342995822429657, -0.13769260048866272, 0.07189442217350006, 0.04751080274581909, 0.12294531613588333, 0.07402003556489944, -0.16126427054405212, 0.10725617408752441, 0.03680751845240593, -0.01141197606921196, -0.09190357476472855, 0.11489027738571167, 0.03534305840730667, 0.12000641226768494, 0.07857394218444824, -0.03487943857908249, 0.047184571623802185, 0.04461762309074402, 0.016588574275374413, 0.09651283174753189, -0.02992286905646324, -0.02738037519156933, 0.028971970081329346, -0.0040482645854353905, -0.11824405938386917, 0.13707730174064636, 0.13481201231479645, 0.08225704729557037, -0.10332121700048447, -0.1708819568157196, -0.09027372300624847, -0.06945286691188812, -0.09590373188257217, -0.11460629850625992, -0.12143207341432571, -0.1846342831850052, -0.1690567284822464, 0.020519040524959564, -0.18575997650623322, -0.11408163607120514, 0.055713947862386703, 0.07939692586660385, 0.04408766329288483, -0.060443419963121414, -0.09031841903924942, 0.11717651784420013, -0.01175706833600998, -0.09927567094564438, 0.028122523799538612, 0.01959804631769657, 0.060797929763793945, -0.16431193053722382, -0.04114556685090065, -0.10020603239536285, -0.02437864989042282, 0.097819484770298, 0.04371669515967369, -0.023340225219726562, 0.07654419541358948, 0.07640261203050613, -0.008824617601931095, -0.1571643352508545, -0.027906116098165512, 0.11970880627632141, -0.11358364671468735, -0.15595988929271698, 0.019159279763698578, 0.10123274475336075, -0.008968689478933811, -0.15551385283470154, 0.11000412702560425, 0.07953033596277237, -0.037797391414642334, -0.0056088329292833805, 0.012549111619591713, -0.028890596702694893, -0.04606470838189125, 0.02725350670516491, -0.09330099821090698, -0.0007134708575904369, -0.14402887225151062, -0.0895858034491539, -0.10417262464761734, 0.06539470702409744, -0.03591098636388779, -0.04044954106211662, -0.060789234936237335, 0.011095860041677952, 0.008185137994587421, -0.1164127066731453, 0.05955728515982628, -0.08151102811098099, -0.08238683640956879, 0.05956495553255081, 0.1401088684797287, -0.00995136983692646, -0.06177828460931778, 0.08866240829229355, -0.10659785568714142, 0.03984510153532028, 0.08485936373472214, -0.041897960007190704, 0.10912806540727615, -0.08551707863807678, -0.07572173327207565, -0.043508611619472504, 0.07371551543474197, 0.05251307412981987, 0.056027188897132874, -0.16275547444820404, -0.03019707277417183, -0.04989470914006233, -0.021068954840302467, -0.12801161408424377, 0.00458073616027832, -0.1135149598121643, -0.15005718171596527, -0.03477154299616814, 0.02492060698568821, -0.021468807011842728, -0.17344161868095398, -0.033827681094408035, -0.07824153453111649, -0.12822875380516052, -0.1391749531030655, 0.1505471020936966, -0.07057222723960876, 0.039191607385873795, 0.09094693511724472, 0.11587817966938019, -0.018945347517728806, 0.11619400978088379, -0.03881242871284485, 0.0855284258723259, 0.09458346664905548, -0.05605552718043327, 0.06893882900476456, 0.03966040909290314, -0.10167480260133743, -0.1123674064874649, -0.0308518148958683, 0.05688664689660072, 0.12448990345001221, -0.06587083637714386, 0.14825494587421417, -0.070360466837883, 0.11086297780275345, 0.03688130900263786, 0.08252110332250595, -0.024560995399951935, -0.04179238900542259, 0.07896044105291367, 0.14293764531612396, -0.057377081364393234, -0.008396314457058907, 0.1525387316942215, 0.010845093987882137, -0.11287490278482437, 0.02314232476055622, -0.07258471846580505, 0.15209122002124786, 0.011169075034558773, 0.09754092991352081, 0.16348810493946075, -0.09573028236627579, -0.035680148750543594, -0.06857069581747055, 0.07182411104440689, 0.1471758484840393, 0.09268513321876526, 0.016369011253118515, 0.13737206161022186, -0.11591441929340363, -0.08555236458778381, 0.037691980600357056, -0.11647795140743256, 0.12269812077283859, -0.06006837636232376, 0.11838465929031372, -0.0834917426109314, 0.11320000886917114, -0.05859879031777382, 0.1370503455400467, -0.10560306161642075, 0.01456134021282196, -0.024816414341330528, 0.11752612888813019, 0.08590973913669586, -0.06587439775466919, 0.005814529489725828, -0.11438050121068954, 0.023920398205518723, -0.007660137489438057, 0.041834741830825806, -0.037679944187402725, 0.09091106802225113, 0.1139911338686943, -0.09194641560316086, 0.09466145187616348, -0.0034207720309495926, 0.039664946496486664, 0.036967597901821136, 0.02813873440027237, -0.04369371384382248, 0.18378400802612305, 0.08963341265916824, -0.04066843539476395, 0.017546622082591057, 0.12628619372844696, -0.020374542102217674, 0.030492782592773438, 0.022557582706212997, -0.12081316858530045, 0.1357528567314148, 0.06246242672204971, 0.003059794194996357, -0.08754081279039383, -0.11262622475624084, -0.0025903775822371244, -0.03445135056972504, 0.136184424161911, 0.14253289997577667, -0.13342787325382233, 0.13555791974067688, -0.13900183141231537, -0.06862153857946396, -0.11318662762641907, -0.14825212955474854, -0.14779794216156006, 0.044341061264276505, -0.03649856150150299, -0.05095412954688072, -0.02515224739909172, -0.030083948746323586, 0.09315082430839539, 0.0780491977930069, -0.12147751450538635, 0.05457209050655365, -0.1414102017879486, -0.07940077036619186, -0.13655492663383484, -0.07485131919384003, -0.14777541160583496, 0.11236871033906937, -0.11052226275205612, 0.03665265813469887, 0.11084301024675369, 0.043262045830488205, -0.03982656076550484, 0.07850218564271927, 0.08789156377315521, -0.07500313222408295, 0.011161118745803833, 0.0002854317135643214, 0.012950214557349682, 0.10818995535373688, 0.05492037534713745, 0.033942561596632004, -0.07793696224689484, 0.1363678127527237, -0.12272658199071884, -0.023970739915966988, 0.11098521947860718, -0.14218446612358093, -0.12071067094802856, 0.07584384083747864, 0.059367578476667404, -0.006575573701411486, -0.15994487702846527, -0.0057237655855715275, -0.030747292563319206, 0.03737520053982735, 0.0703442320227623, 0.09004832059144974, -0.11926198750734329, -0.0729166716337204, 0.13258525729179382, 0.019345421344041824, -0.07290104031562805, 0.018171189352869987, 0.0016240155091509223, -0.16754943132400513, -0.08234303444623947, -0.08184071630239487, 0.11557076126337051, 0.09163272380828857, -0.07604742050170898, -0.008769268169999123, 0.021139172837138176, -0.10054363310337067, -0.11772958934307098, -0.0998544692993164, -0.13991712033748627, -0.14764471352100372, -0.008244567550718784, 0.11616215109825134, -0.021874452009797096, -0.1064659059047699, -0.1451040357351303, -0.008624201640486717, 0.11468823254108429, 0.09137751907110214, -0.05628181993961334, -0.11136770993471146, 0.057667799293994904, -0.12990017235279083, -0.1452362984418869, 0.026887167245149612, -0.08699309080839157, 0.09496023505926132, -0.03834869712591171, 0.14993347227573395, 0.13206931948661804, -0.05499303340911865, -0.0750243291258812, 0.04165131226181984, -0.11575361341238022, 0.01158449612557888, 0.1619720757007599, -0.10783692449331284, 0.0629446879029274, -0.11438645422458649, -0.021364372223615646, -0.138487309217453, -0.06416579335927963, 0.12442521005868912, -0.1223234087228775, 0.07920072972774506, 0.09313441812992096, 0.056961674243211746, -0.12972725927829742, -0.08529837429523468, -0.09810669720172882, -0.0907030701637268, -0.14567817747592926, -0.10552387684583664, -0.12427970767021179, 0.11610088497400284, -0.05308348312973976, 0.15697062015533447, -0.16179127991199493, -0.14692530035972595, -0.011969134211540222, -0.08454150706529617, -0.14894405007362366, -0.049429021775722504, 0.0008461943361908197, 0.10285692662000656, -0.05796393007040024, -0.06545869261026382, -0.07610847800970078, -0.08411838114261627, -0.16325081884860992, 0.02980206534266472, 0.0005512629868462682, -0.06889422237873077, -0.17133839428424835, -0.13848236203193665, -0.10516200214624405, -0.06278308480978012, -0.08271889388561249, -0.0175433661788702, 0.052809346467256546, -0.12416845560073853, 0.010460125282406807, -0.10380018502473831, 0.03065633587539196, -0.012107715010643005, 0.05647207424044609, -0.0668109729886055, -0.03671911358833313, 0.0826953649520874, 0.015812955796718597, -0.05389539152383804, 0.1066354438662529, -0.13829505443572998, -0.1720731258392334, 0.1109977588057518, -0.010140830650925636, -0.12944403290748596, -0.0638851523399353, -0.030333295464515686, -0.014984439127147198, -0.02905251644551754, 0.007765716407448053, 0.13590200245380402, 0.1257563978433609, -0.13003751635551453, -0.05178233981132507, 0.1494167000055313, 0.1616765558719635, 0.07911697030067444, 0.027906492352485657, 0.037334609776735306, 0.031851284205913544, -0.085166797041893, -0.10305154323577881, -0.0016745836474001408, 0.00290276319719851, 0.019640514627099037, 0.10468122363090515, 0.08467371016740799, -0.08031062036752701, -0.08684691786766052, 0.11190221458673477, 0.03460106998682022, -0.03377945348620415, 0.0894683375954628, -0.07164875417947769, -0.09857817739248276, 0.17260679602622986, -0.021192563697695732, 0.1724672168493271, 0.058156970888376236, 0.013628002256155014, 0.016614004969596863, 0.003083096817135811, 0.015366128645837307, 0.17853550612926483, 0.031866297125816345, -0.10354364663362503, -0.023746192455291748, -0.0059815580025315285, 0.06239122152328491, 0.1258409470319748, -0.08573652803897858, 0.12756787240505219, -0.15822456777095795, -0.06317907571792603, 0.09798049181699753, -0.06712591648101807, -0.06925851106643677, -0.051083993166685104, -0.18588851392269135, 0.09246282279491425, -0.10650971531867981, 0.001965821487829089, -0.009825165383517742, -0.01024455763399601, -0.15742097795009613, 0.10147642344236374, 0.09437158703804016, 0.1274932473897934, 0.13581199944019318, -0.06007220968604088, 0.08158937841653824, -0.13757145404815674, -0.03540196642279625, 0.036978475749492645, 0.00960797443985939, 0.06714341044425964, -0.0021154158748686314, 0.030192242935299873, -0.17342524230480194, 0.01773548312485218, -0.049666933715343475, -0.17589367926120758, 0.07684009522199631, 0.029714670032262802, -0.1738782376050949, -0.18308322131633759, -0.1196293830871582, 0.11730244010686874, 0.04377784952521324, 0.06899242848157883, 0.00017046112043317407, 0.027457676827907562, 0.022023320198059082, -0.11523348838090897, 0.13295873999595642, 0.11995324492454529, -0.10788058489561081, -0.13058580458164215, 0.1306016892194748, -0.14322148263454437, -0.047073930501937866, -0.10096140950918198, -0.11800843477249146, 0.02350611425936222, 0.1546696275472641, -0.07583007216453552, -0.023236477747559547, 0.027141757309436798, -0.04335029050707817, 0.05793434754014015, -0.12769751250743866, 0.06035422161221504, -0.0341898649930954, -0.06577979773283005, -0.04565008357167244, -0.09085143357515335, 0.021273909136652946, 0.09107160568237305, -0.0358995720744133, -0.011877248995006084, -0.05579937994480133, 0.14813661575317383, -0.02079656720161438, 0.13175906240940094, 0.10115578025579453, -0.007218156475573778, 0.17956271767616272, 0.013535602949559689, -0.09363000094890594, 0.1252901554107666, -0.14255641400814056, 0.09020569175481796, -0.04896702617406845, 0.15429791808128357, -0.007381118834018707, -0.0068171676248312, 0.03561113774776459, 0.05038180202245712, -0.1333858072757721, 0.15810000896453857, -0.06396323442459106, 0.021592481061816216, 0.010171729139983654, 0.030967766419053078, 0.08301303535699844, 0.028030944988131523, 0.04567290097475052, 0.06674351543188095, -0.02467169053852558, -0.00932177435606718, -0.059005044400691986, 0.14126010239124298, 0.1590825319290161, -0.11046892404556274, 0.062349554151296616, 0.07444480061531067, 0.11570372432470322, 0.15521712601184845, -0.05210335552692413, 0.10000410676002502, -0.10266084223985672, -0.08211378008127213, -0.03412763029336929, -0.07975040376186371, 0.17017245292663574, -0.011473240330815315, 0.13582900166511536, 0.08288171887397766, -0.09775017201900482, 0.015587900765240192, -0.01530066691339016, -0.14893756806850433, 0.15509822964668274, -0.047251146286726, 0.06754231452941895, -0.13262933492660522, -0.129844531416893, -0.039042819291353226, 0.07347212731838226, 0.0826711505651474, -0.041412103921175, 0.06902521848678589, 0.015392722561955452, -0.0025931615382432938, 0.17382211983203888, -0.13832992315292358, 0.12285862863063812, -0.07191304117441177, 0.011660457588732243, 0.09653354436159134, -0.124649778008461, 0.14927572011947632, -0.08958377689123154, -0.04099633917212486, 0.025181487202644348, -0.05213220417499542, 0.13485944271087646, 0.025533877313137054, 0.1649417281150818, 0.11926823109388351, 0.1558421403169632, 0.11954130232334137, 0.12569253146648407, 0.04232348874211311, -0.01120700966566801, 0.04394795373082161, -0.07648153603076935, 0.18911072611808777, 0.10439560562372208, -0.09551113098859787, 0.09340833872556686, 0.08382164686918259, -0.0845666155219078, -0.1358809471130371, 0.011717709712684155, 0.15607096254825592, 0.08018174022436142, 0.10721555352210999, -0.09871069341897964, -0.08502288907766342, 0.1024753749370575, -0.07268381863832474, -0.03882872313261032, -0.05237806215882301, -0.0964883416891098, 0.027776353061199188, 0.026869503781199455, -0.13127048313617706, 0.026405014097690582, 0.0015863243024796247, 0.06052326783537865, -0.12603026628494263, 0.16710232198238373, -0.09350290149450302, -0.06990785151720047, 0.08257105201482773, 0.1524905264377594, 0.03590777516365051, 0.12039672583341599, -0.05268428474664688, 0.16846312582492828, -0.07825981825590134, 0.08642164617776871, 0.11657722294330597, 0.04652871564030647, -0.0444122739136219, 0.13810858130455017, 0.09426407516002655, -0.10135877132415771, 0.057641562074422836, -0.058630652725696564, 0.07411843538284302, 0.13084441423416138, 0.18385247886180878, 0.039235107600688934, 0.11567327380180359, -0.037988271564245224, 0.033073656260967255, 0.033385489135980606, 0.10454116016626358, -0.1252538561820984, 0.07074587792158127, -0.10526882857084274, -0.09870652109384537, 0.03990119323134422, -0.10381697863340378, -0.03638146072626114, 0.08265464752912521, 0.10583655536174774, -0.10001984983682632, -0.10883219540119171, -0.10766324400901794, 0.09319757670164108, -0.15231996774673462, 0.01370524987578392, -0.12353113293647766, -0.14624947309494019, 0.09630507230758667, -0.034113503992557526, -0.056299325078725815, -0.15549127757549286, 0.046125080436468124, -0.19474181532859802, -0.1445031315088272, -0.15644977986812592, 0.11342307925224304, -0.11529786139726639, -0.17506539821624756, -0.17413441836833954, 0.048905421048402786, 0.047512251883745193, -0.008207443170249462, -0.07851918786764145, -0.1566719263792038, -0.18200895190238953, -0.0749569982290268, -0.06828847527503967, 0.10043871402740479, 0.08944198489189148, 0.024627385661005974, 0.0471164807677269, 0.11860105395317078, -0.06823147088289261, 0.07154212892055511, 0.12779121100902557, 0.13941164314746857, -0.08792362362146378, 0.014234299771487713, 0.14964014291763306, -0.1105741485953331, 0.09957476705312729, 0.03324286267161369, -0.009192157536745071, -0.0531717911362648, -0.07845131307840347, -0.012755106203258038, -0.12669283151626587, 0.08737950772047043, -0.04641850292682648, -0.03765204921364784, 0.06180841848254204, 0.1361958086490631, -0.007923029363155365, 0.050100017338991165, 0.024384653195738792, -0.12297258526086807, 0.015471572056412697, 0.17407377064228058, 0.1567341685295105, 0.013106128200888634, -0.08938196301460266, -0.053048089146614075, 0.15415973961353302, -0.10502143204212189, 0.08144818991422653, 0.1827690601348877, 0.02789219841361046, 0.14715521037578583, 0.04816305264830589, -0.11640528589487076, 0.043564390391111374, -0.07560312002897263, 0.03530000150203705, 0.019778989255428314, 0.02225862629711628, -0.07443950325250626, -0.08878612518310547, 0.12024109810590744, 0.10520462691783905, -0.1395750194787979, 0.10359811782836914, -0.024728721007704735, -0.047608111053705215, -0.07755742222070694, -0.04101691022515297, -0.018911797553300858, -0.11852529644966125, 0.10869390517473221, -0.04617331176996231, -0.08789297938346863, 0.06794916093349457, 0.07426449656486511, 0.10296283662319183, -0.09583232551813126, -0.08625074476003647, 0.07489189505577087, 0.020212547853589058, -0.04811427369713783, -0.07946325838565826, 0.04598343372344971, 0.12583068013191223, -0.03451624885201454, 0.15220235288143158, 0.11709139496088028, -0.029957370832562447, 0.10967370122671127, 0.081612728536129, -0.04413415491580963, 0.19511611759662628, -0.05481620505452156, -0.07303352653980255, 0.07310778647661209, 0.040830183774232864, 0.10321705788373947, 0.053476039320230484, 0.14898470044136047, 0.04297026991844177, -0.09194637835025787, -0.04001369699835777, 0.14993150532245636, 0.1610139012336731, -0.11761501431465149, -0.04920904338359833, -0.12136723101139069, -0.021161172538995743, -0.10046549141407013, -0.0030738527420908213, -0.09910537302494049, -0.08180323988199234, 0.055740125477313995, -0.08960041403770447, 0.12414398044347763, -0.10519149154424667, 0.12444257736206055, 0.06508240848779678, -0.13349182903766632, 0.0661754459142685, 0.13264964520931244, 0.04347237944602966, 0.05344967916607857, -0.09197840839624405, 0.16715100407600403, -0.001705401111394167, 0.1667269915342331, 0.056349702179431915, 0.09624873846769333, 0.14536595344543457, -0.045540452003479004, -0.0105928098782897, -0.011595743708312511, 0.10902434587478638, 0.1325359046459198, 0.07506705075502396, 0.048394810408353806, 0.13889770209789276, -0.09208713471889496, 0.11383487284183502, -0.06728629022836685, 0.10064025968313217, 0.06846330314874649, -0.037607889622449875, -0.07043331861495972, -0.08059950172901154, 0.07612944394350052, -0.022633641958236694, -0.14776009321212769, -0.07179581373929977, -0.09045180678367615, 0.08264781534671783, -0.06549753993749619, 0.018639717251062393, -0.029032012447714806, -0.11965405195951462, 0.10364961624145508, 0.12914951145648956, 0.02426733262836933, -0.06002318486571312, -0.11512298882007599, -0.04180843010544777, 0.003930697683244944, -0.17095863819122314, 0.02201281487941742, -0.05848711356520653, -0.04799657315015793, -0.09758346527814865, -0.01349297259002924, 0.08900035917758942, -0.008429894223809242, -0.08002794533967972, -0.08599139750003815, -0.09229762852191925, 0.0010780557058751583, -0.14187854528427124, -0.013302107341587543, -0.09728731960058212, -0.05232575535774231, 0.07606422901153564, -0.09898778796195984, -0.05207723379135132, -0.015032094903290272, -0.12585097551345825, -0.015811456367373466, -0.0996083989739418, -0.008447288535535336, 0.08368983119726181, -0.02623356319963932, -0.09832540154457092, -0.14632894098758698, -0.13989336788654327, 0.010872926563024521, -0.13894961774349213, 0.1348148137331009, -0.10152961313724518, -0.1252259910106659, 0.004297992214560509, -0.056306127458810806, -0.019063616171479225, -0.11098061501979828, -0.14352549612522125, -0.16856485605239868, 0.02955329790711403, -0.00906995590776205, -0.024340840056538582, 0.02228894829750061, -0.17038482427597046, 0.014747995883226395, -0.14390221238136292, -0.07743822783231735, -0.09801222383975983, -0.1768411248922348, -0.1670655906200409, 0.08961263298988342, -0.07376506179571152, -0.18310603499412537, -0.09764040261507034, -0.15196210145950317, -0.10808508098125458, -0.06985983997583389, 0.010812349617481232, 0.01811210624873638, -0.003160816850140691, -0.01573014445602894, 0.1368245929479599, 0.028682904317975044, -0.11225447803735733, -0.052759699523448944, 0.1165090948343277, 0.06695790588855743, 0.028444817289710045, 0.04892609640955925, 0.13045474886894226, -0.007691987324506044, -0.03400425612926483, -0.03543125092983246, 0.03449694812297821, 0.13119401037693024, 0.13826918601989746, 0.049964770674705505, 0.11994081735610962, 0.15395894646644592, -0.12377185374498367, -0.08119287341833115, -0.0053695933893322945, -0.04997174069285393, 0.03855026885867119, 0.03726600855588913, 0.1821202039718628, -0.05425495281815529, 0.06613518297672272, 0.12436368316411972, 0.020825976505875587, -0.06896226108074188, -0.050494566559791565, 0.15228936076164246, 0.06704525649547577, 0.029693420976400375, 0.02118920162320137, -0.01724807173013687, -0.08897486329078674, -0.03717958554625511, -0.023480292409658432, -0.11588804423809052, 0.07784849405288696, 0.05153139308094978, 0.00035664057941175997, -0.12645238637924194, 0.035519711673259735, 0.12362749874591827, 0.03770117089152336, -0.07677626609802246, -0.15083132684230804, 0.04222327470779419, -0.1410316377878189, -0.06759599596261978, 0.10512543469667435, 0.020581837743520737, 0.02153504453599453, -0.11140628904104233, 0.13066190481185913, -0.02827296406030655, -0.11135892570018768, -0.09302156418561935, 0.09407166391611099, -0.12764741480350494, -0.11902268975973129, 0.00536348856985569, -0.1522783637046814, 0.02677038125693798, -0.0763774886727333, 0.08560490608215332, -0.09151192754507065, 0.04543080925941467, 0.10127244144678116, -0.1977086067199707, -0.011334715411067009, -0.07323070615530014, -0.023907992988824844, -0.0648287907242775, 0.0038978098891675472, 0.03307538852095604, 0.0370812825858593, 0.1452045440673828, 0.13268041610717773, 0.13292565941810608, 0.07210510224103928, -0.01217918936163187, 0.018586380407214165, -0.12368935346603394, 0.11775211989879608, -0.12345213443040848, -0.08622093498706818, 0.06925064325332642, 0.11546959728002548, -0.1381075382232666, 0.06874192506074905, -0.050990208983421326, 0.14119872450828552, -0.0940009355545044, 0.02480451390147209, -0.06412474066019058, 0.11788530647754669, -0.11269215494394302, -0.013546965084969997, -0.11714208871126175, -0.07372128963470459, 0.07066244632005692, -0.16075992584228516, -0.0849195122718811, -0.16262036561965942, -0.08820072561502457, -0.06223233789205551, -0.024737846106290817, 0.05052434653043747, -0.01923246681690216, 0.07391013205051422, -0.04726463183760643, 0.07852877676486969, -0.07264531403779984, -0.1865290403366089, 0.02783784456551075, -0.16184215247631073, -0.12355132400989532, 0.001289299689233303, 0.06659439951181412, 0.12413389980792999, -0.09543171525001526, 0.05106236785650253, -0.10446809977293015, 0.013588880188763142, -0.11101661622524261, 0.13653123378753662, 0.07902997732162476, 0.11703948676586151, 0.0789439007639885, 0.11601074039936066, -0.06725931167602539, -0.007180838845670223, 0.14178958535194397, -0.025593752041459084, -0.008018294349312782, -0.12268029153347015, -0.007810295559465885, 0.0386543795466423, 0.10177073627710342, 0.17225070297718048, -0.05840189754962921, -0.036355625838041306, 0.13403953611850739, -0.04681391268968582, 0.14815650880336761, -0.005865394603461027, -0.11293873190879822, 0.05643234774470329, 0.010566863231360912, 0.13963407278060913, 0.11228793114423752, -0.030209621414542198, 0.1488087922334671, 0.1278989017009735, 0.053613390773534775, -0.10068850964307785, -0.10697369277477264, 0.1699938029050827, 0.006637147162109613, 0.062236301600933075, 0.039062321186065674, 0.044261522591114044, -0.07588787376880646, -0.09310874342918396, 0.02460549958050251, -0.08697821199893951, -0.0071493834257125854, -0.12747599184513092, -0.15926353633403778, 0.07274675369262695, 0.08548766374588013, 0.07363758236169815, -0.09618338197469711, -0.15640044212341309, -0.04004047065973282, -0.03604027256369591, 0.041029613465070724, -0.06528869271278381, -0.0889916718006134, -0.12143850326538086, -0.08868051320314407, -0.1337120234966278, 0.04239898547530174, 0.1261991709470749, 0.12362634390592575, -0.07903101295232773, 0.04612191393971443, 0.11195819079875946, -0.028219766914844513, -0.025137200951576233, -0.0012560198083519936, 0.09536291658878326, 0.004844339564442635, -0.10364687442779541, -0.13736090064048767, -0.15764731168746948, -0.174757182598114, 0.0566212497651577, 0.0513698048889637, -0.11100023239850998, -0.08030205219984055, 0.14445246756076813, -0.10164743661880493, -0.10915704071521759, -0.0852130725979805, 0.056621890515089035, 0.11972016841173172, 0.15625286102294922, 0.10266268998384476, -0.05169397220015526, 0.004030783660709858, 0.14507225155830383, -0.11769887804985046, -0.13902240991592407, -0.13508442044258118, -0.09524792432785034, -0.09812787175178528, -0.08406864106655121, 0.01861913874745369, -0.09184300899505615, 0.13411153852939606, 0.12519395351409912, 0.057186614722013474, 0.152057945728302, 0.044078994542360306, -0.00979346688836813, -0.14341874420642853, -0.04183993861079216, 0.014127273112535477, -0.06083403900265694, -0.029932081699371338, 0.11255599558353424, -0.04015897214412689, 0.037864577025175095, 0.026303455233573914, 0.11840968579053879, 0.11549027264118195, -0.03247438743710518, -0.001454292912967503, -0.07064416259527206, -0.13681384921073914, 0.042764026671648026, 0.014564510434865952, -0.012101022526621819, -0.027994494885206223, -0.09400535374879837, 0.14838628470897675, 0.09658651798963547, -0.14635279774665833, 0.1414366364479065, 0.03019067645072937, -0.12701186537742615, -0.056346695870161057, -0.10520034283399582, -0.1106921061873436, -0.0685238242149353, -0.09320051223039627, 0.11447680741548538, 0.03840027004480362, -0.035103101283311844, 0.04061439260840416, 0.08148722350597382, 0.016131658107042313, 0.06823679059743881, 0.046463578939437866, 0.15914349257946014, 0.147062286734581, -0.10432706773281097, 0.14668864011764526, 0.12041805684566498, 0.13359051942825317, 0.0072922962717711926, 0.05971519276499748, 0.13761155307292938, -0.10705149918794632, -0.12336012721061707, 0.12123297154903412, 0.09436243027448654, 0.1395731270313263, 0.0500965490937233, 0.1217481717467308, 0.045511260628700256, -0.06639979779720306, -0.018253061920404434, 0.16015931963920593, 0.020761722698807716, -0.04117240011692047, 0.025648199021816254, -0.05964120477437973, -0.05257643386721611, -0.08446439355611801, -0.06749267876148224, 0.03770005702972412, 0.14240612089633942, -0.060016926378011703, 0.06829023361206055, 0.12849269807338715, -0.08433009684085846, 0.04042082652449608, 0.0589689202606678, 0.0014918320812284946, -0.0961800068616867, 0.04578419402241707, 0.1313973218202591, -0.020277082920074463, -0.008923310786485672, 0.0016294348752126098, 0.10045182704925537, -0.01084672287106514, -0.021113580092787743, -0.13621333241462708, -0.13347680866718292, -0.01327743474394083, 0.15201126039028168, -0.12240657210350037, 0.05193369463086128, -0.13294625282287598, 0.11071103066205978, 0.14925365149974823, 0.015321002341806889, -0.013869013637304306, 0.11636029183864594, 0.06654348969459534, 0.13816002011299133, -0.14089851081371307, 0.0071519105695188046, 0.1082233190536499, -0.06140216812491417, 0.044992394745349884, 0.05383340269327164, 0.002713085850700736, 0.04269808530807495, 0.100956030189991, -0.06505704671144485, -0.02670741081237793, -0.004195564426481724, -0.013156603090465069, 0.05800013616681099, -0.10999064147472382, -0.03069145791232586, 0.03902588412165642, -0.03606662526726723, -0.09911741316318512, -0.08036491274833679, -0.05693444982171059, 0.08802787959575653, 0.12218914926052094, 0.05547267943620682, -0.15099014341831207, 0.12072418630123138, -0.12009861320257187, -0.1036069318652153, 0.05416002497076988, 0.03955205902457237, -0.14490391314029694, -0.012423524633049965, -0.012542235665023327, -0.13767285645008087, -0.04967043176293373, -0.11276773363351822, 0.04944285377860069, 0.088615782558918, -0.18621888756752014, -0.06547028571367264, -0.13178645074367523, -0.05158497765660286, -0.08610477298498154, -0.05046015977859497, -0.009699493646621704, -0.04176971688866615, -0.10615336894989014, -0.09495426714420319, -0.02942560613155365, -0.14521348476409912, 0.0586550310254097, 0.12624384462833405, 0.06791821867227554, -0.03650108352303505, -0.05893274396657944, -0.08317013084888458, -0.02715163677930832, 0.1507696658372879, -0.04441549628973007, -0.1361386924982071, -0.07143758237361908, 0.13567301630973816, -0.1127053052186966, -0.09309202432632446, 0.04945013299584389, 0.07093463838100433, 0.07444924861192703, -0.12216456234455109, 0.039707932621240616, -0.10238323360681534, -0.13758543133735657, -0.0655171349644661, 0.14839205145835876, -0.05697620287537575, 0.12573404610157013, 0.1546470671892166, 0.06549452990293503, -0.13343533873558044, -0.16197074949741364, 0.04906380549073219, 0.01050455030053854, 0.11037789285182953, -0.11682205647230148, 0.111847423017025, -0.07501966506242752, 0.034966982901096344, 0.03342872112989426, 0.051192279905080795, -0.019886601716279984, 0.11624380201101303, 0.14746779203414917, 0.0577082484960556, -0.015114475041627884, -0.05084530636668205, -0.11170581728219986, 0.14860357344150543, 0.12590035796165466, -0.10399757325649261, -0.05130616948008537, 0.15306144952774048, 0.13619092106819153, -0.05870639160275459, -0.044930435717105865, -0.04123719036579132, -0.03394216671586037, 0.10484323650598526, 0.16196772456169128, 0.02892148122191429, 0.14990179240703583, -0.09455183148384094, 0.10843571275472641, -0.005031803157180548, -0.04405941814184189, -0.04043674096465111, 0.10637342929840088, 0.0679827556014061, 0.05352609232068062, -0.10981381684541702, 0.13078995048999786, 0.03662913665175438, -0.0013454080326482654, 0.15663832426071167, 0.022212974727153778, 0.12877978384494781, -0.010753974318504333, 0.02683536894619465, -0.026318255811929703, -0.038185346871614456, 0.15931996703147888, 0.02033969759941101, -0.0023601925931870937, -0.11089378595352173, 0.13132435083389282, 0.13569232821464539, -0.07785361260175705, 0.03322148695588112, -0.007667137775570154, -0.024884667247533798, -0.12117413431406021, -0.010858586989343166, 0.028751229867339134, 0.012296374887228012, 0.062343478202819824, 0.09686178714036942, -0.007820025086402893, -0.06466834992170334, -0.0919724702835083, 0.005112615879625082, 0.08800610154867172, 0.05081963539123535, 0.022840354591608047, -0.055819906294345856, 0.05236392095685005, 0.05603959038853645, 0.11451924592256546, -0.08484090119600296, -0.13078539073467255, -0.1122109517455101, -0.02850218489766121, -0.003995220642536879, -0.06920047104358673, -0.16709794104099274, 0.05741792172193527, 0.06677959114313126, -0.15773330628871918, 0.04279937595129013, 0.05580538138747215, -0.1153450608253479, 0.02718460001051426, -0.11597754061222076, -0.14546337723731995, -0.07781210541725159, -0.005405522417277098, 0.06986749917268753, -0.03199055418372154, -0.08995457738637924, 0.1034662052989006, 0.056326769292354584, -0.09900888055562973, -0.07995537668466568, 0.08648843318223953, -0.03203975409269333, -0.11960458010435104, 0.11334642022848129, 0.13466180860996246, -0.07859311997890472, -0.076694555580616, -0.07716862857341766, 0.1688859909772873, 0.050961825996637344, -0.01625913195312023, 0.02388269454240799, -0.04600740224123001, -0.10567142814397812, -0.09962774068117142, 0.09765882790088654, -0.0826864168047905, 0.16194473206996918, 0.017699025571346283, -0.043400004506111145, -0.098180390894413, -0.12429003417491913, 0.11539772152900696, 0.15813389420509338, -0.03890026733279228, -0.045344576239585876, 0.06344147026538849, 0.19264784455299377, 0.11202263832092285, 0.1737641841173172, -0.09416426718235016, -0.09748423844575882, 0.12874065339565277, 0.04060577601194382, -0.1308743953704834, -0.13033033907413483, -0.05915144085884094, 0.0735786184668541, -0.0969080924987793, -0.1029442846775055, -0.1348414123058319, 0.12476269900798798, -0.14785903692245483, -0.05498408153653145, 0.07020490616559982, 0.1476214975118637, 0.09872271865606308, -0.07175653427839279, -0.07254288345575333, -0.15297794342041016, -0.08078787475824356, -0.1418871134519577, -0.006498775910586119, 0.015566703863441944, -0.07499422132968903, -0.01656630076467991, -0.06265401095151901, -0.12618868052959442, -0.1274445652961731, 0.06691954284906387, -0.11678086966276169, -0.10614652186632156, 0.0021210466511547565, 0.0730484202504158, -0.12150947749614716, -0.15052522718906403, -0.11803577840328217, -0.09936391562223434, -0.14775152504444122, -0.019032886251807213, 0.02787311002612114, -0.1367306411266327, -0.07049096375703812, 0.020190289244055748, 0.08090868592262268, 0.017146116122603416, 0.04920966923236847, 0.10475635528564453, -0.05732297897338867, -0.15384429693222046, 0.03794899582862854, -0.011097138747572899, -0.12340273708105087, -0.09879592806100845, -0.07338626682758331, -0.08946388214826584, 0.03784533590078354, -0.09516169130802155, 0.02762727066874504, -0.02893923968076706, -0.004984377417713404, 0.15245164930820465, 0.01004704087972641, -0.10312782227993011, 0.06742571294307709, -0.06810764968395233, -0.016592174768447876, -0.0603644996881485, 0.1621684432029724, -0.00012338483065832406, 0.01242661289870739, 0.01565520092844963, 0.03217699006199837, 0.11422369629144669, 0.13595913350582123, 0.023028772324323654, -0.07873287051916122, 0.05962346866726875, 0.05825604498386383, -0.03807857632637024, -0.08405499160289764, 0.14985407888889313, 0.061782076954841614, 0.0222109854221344, 0.017567405477166176, 0.17245011031627655, 0.1431632936000824, 0.07116391509771347, -0.013980524614453316, 0.0686974972486496, -0.10352575033903122, -0.12199223786592484, 0.10280397534370422, 0.14310473203659058, 0.09672947227954865, 0.08255347609519958, 0.14154550433158875, -0.0074226828292012215, -0.09477134048938751, -0.1418428272008896, 0.07416433095932007, -0.16699643433094025, 0.051790010184049606, -0.14407266676425934, 0.14382129907608032, -0.0725681334733963, -0.04270626977086067, 0.056484222412109375, 0.11780603975057602, -0.1414862424135208, 0.04271845147013664, -0.12019281089305878, 0.07866544276475906, -0.056002236902713776, -0.1344814896583557, -0.1127215102314949, -0.14979420602321625, -0.008953318931162357, 0.08036895096302032, -0.07550899684429169, 0.051312800496816635, -0.09611019492149353, -0.09693809598684311, -0.09960205852985382, 0.09004989266395569, -0.1363925337791443, 0.08972251415252686, -0.002900462131947279, -0.14229556918144226, 0.010973591357469559, -0.10424695909023285, 0.1319039911031723, 0.10866987705230713, 0.1389567255973816, 0.1273544877767563, -0.06277382373809814, 0.028313830494880676, -0.07765259593725204, 0.011116146109998226, 0.011901961639523506, 0.040172185748815536, 0.030490120872855186, 0.008726147934794426, 0.026314904913306236, 0.14847326278686523, 0.12466385215520859, 0.14920677244663239, -0.014403218403458595, -0.10415664315223694, 0.12720978260040283, 0.150926873087883, -0.062368132174015045, -0.15412354469299316, 0.13318048417568207, -0.12678633630275726, -0.034994952380657196, -0.027537887915968895, -0.11649313569068909, 0.13880616426467896, -0.1470593512058258, 0.00602156575769186, 0.12999942898750305, -0.05675050988793373, 0.0782076045870781, 0.11911391466856003, 0.026464948430657387, 0.02671150304377079, 0.11042165756225586, 0.032145723700523376, 0.17257505655288696, 0.09568049758672714, -0.11257351189851761, 0.12534667551517487, 0.14807842671871185, 0.09713837504386902, -0.0929204672574997, 0.019928067922592163, -0.0302237831056118, -0.109825499355793, -0.09603455662727356, 0.05878803879022598, -0.08284690231084824, 0.07720718532800674, -0.1179141253232956, 0.07479095458984375, -0.05844397097826004, 0.06191327050328255, -0.08851642161607742, -0.03863481432199478, 0.06561755388975143, -0.030735069885849953, 0.029155779629945755, 0.02096722275018692, 0.15041674673557281, 0.08541540801525116, 0.11677038669586182, 0.038253434002399445, -0.0772504210472107, -0.1411454677581787, 0.017208226025104523, -0.007067453116178513, -0.005861057434231043, -0.09310460090637207, -0.042792461812496185, 0.0635124072432518, -0.07624223083257675, -0.02179056592285633, -0.1275126039981842, -0.07062767446041107, -0.08852862566709518, 0.036353521049022675, -0.06785186380147934, 0.05375250428915024, -0.0028899586759507656, -0.10972614586353302, -0.13016736507415771, -0.03000805713236332, 0.08099371194839478, -0.09830161929130554, 0.12362506985664368, -0.02080521173775196, 0.01648717373609543, -0.0573573112487793, 0.0860227420926094, 0.11815214902162552, -0.09735865145921707, 0.020151205360889435, 0.008442826569080353, 0.11344101279973984, 0.046074867248535156, 0.11633341759443283, 0.12738217413425446, -0.16536778211593628, 0.13253456354141235, 0.08446832746267319, -0.1380809098482132, -0.1562991589307785, -0.04776492342352867, 0.09343063086271286, -0.1473446786403656, 0.0398208387196064, -0.17841041088104248, 0.03592263162136078, 0.11497336626052856, 0.03015865385532379, 0.07968521118164062, 0.03860042616724968, 0.09446495026350021, -0.17859505116939545, 0.07051314413547516, -0.0313556008040905, -0.10234887152910233, 0.007673120126128197, 0.017405955120921135, 0.023812467232346535, -0.01792863756418228, -0.06396673619747162, -0.03632168844342232, -0.003606945276260376, 0.0508258119225502, -0.023776693269610405, -0.04576236382126808, -0.03422103449702263, 0.09397310763597488, -0.03705894201993942, 0.05322875827550888, 0.03503910452127457, 0.08793413639068604, -0.11044752597808838, -0.08605791628360748, -0.1277092844247818, -0.003608633065596223, -0.10710238665342331, 0.017715267837047577, -0.05963980779051781, -0.046211209148168564, -0.0911082774400711, -0.12672549486160278, -0.16836893558502197, 0.1354595422744751, 0.11325477063655853, -0.10799293220043182, -0.005079631227999926, -0.004022513050585985, -0.08030113577842712, -0.12918730080127716, -0.15413452684879303, -0.11075948923826218, 0.08117744326591492, -0.07429146021604538, 0.0747237429022789, -0.16726218163967133, 0.09782608598470688, -0.16251246631145477, -0.13727356493473053, -0.06941986829042435, 0.007900560274720192, 0.01357205305248499, 0.13348214328289032, -0.13685983419418335, 0.16118545830249786, 0.044207360595464706, 0.02205178327858448, 0.019461097195744514, 0.014964659698307514, 0.1616256982088089, 0.02167998068034649, -0.0436166450381279, 0.12876510620117188, 0.1484561711549759, 0.10382097214460373, 0.038410112261772156, 0.075558140873909, 0.03962527588009834, 0.16802048683166504, 0.03690553829073906, -0.09863060712814331, 0.16811402142047882, -0.10572119802236557, -0.009407230652868748, 0.07754296809434891, -0.11448203027248383, 0.0986257866024971, 0.13979686796665192, 0.044713761657476425, 0.007193631026893854, 0.15159441530704498, 0.03910576552152634, 0.08564981073141098, 0.06492730975151062, 0.16824106872081757, -0.05839022248983383, -0.10163749009370804, 0.018588857725262642, 0.17493467032909393, 0.029378896579146385, 0.019711924716830254, -0.01346875075250864, 0.09892213344573975, -0.07448583841323853, -0.10387855023145676, -0.09874145686626434, 0.030071884393692017, -8.551676000934094e-05, -0.10733253508806229, 0.12277964502573013, 0.16691039502620697, 0.13589194416999817, -0.11765836924314499, 0.022139782086014748, -0.12510129809379578, -0.0864604264497757, -0.023710845038294792, 0.067887082695961, -0.022596538066864014, -0.0495205819606781, 0.07277953624725342, 0.09243083000183105, 0.13878872990608215, -0.015085185877978802, 0.0428742952644825, 0.021638905629515648, -0.032193105667829514, 0.09626352787017822, 0.1347908228635788, 0.09951932728290558, -0.05615030974149704, -0.07429949194192886, -0.057824887335300446, 0.15073499083518982, 0.023772235959768295, 0.09815212339162827, 0.13720624148845673, -0.13214048743247986, 0.07865265756845474, 0.17247413098812103, -0.058675363659858704, 0.03933115676045418, -0.08857506513595581, 0.06685993820428848, 0.11966165155172348, -0.060454174876213074, 0.007932016626000404, -0.008382336236536503, -0.0067992745898664, 0.11671210825443268, -0.03340001404285431, -0.0012375205988064408, -0.17851144075393677, -0.12706193327903748, 0.08311906456947327, -0.15603074431419373, 0.05606486275792122, 0.05654887482523918, -0.11483856290578842, -0.11559417843818665, 0.03170367702841759, -0.10665813088417053, -0.09457337111234665, 0.043567903339862823, 0.06787760555744171, -0.04119296371936798, 0.038060422986745834, -0.0036608960945159197, -0.15531891584396362, -0.13188160955905914, -0.048870839178562164, -0.016722070053219795, 0.13044002652168274, -0.19181805849075317, -0.06535034626722336, -0.02797187864780426, -0.13029435276985168, 0.03284057229757309, 0.09127653390169144, -0.13349220156669617, -0.04810532554984093, -0.06439557671546936, 0.07281240075826645, 0.07876081019639969, 0.07262354344129562, -0.18847844004631042, -0.17601411044597626, 0.012295722961425781, -0.016799772158265114, -0.07225015759468079, 0.009485508315265179, 0.11416251957416534, 0.11794254928827286, 0.09533648937940598, 0.10871343314647675, 0.14533835649490356, 0.07935124635696411, 0.049669139087200165, -0.06328095495700836, -0.08722846210002899, -0.02874421328306198, 0.1224655732512474, -0.07375937700271606, 0.08035929501056671, -0.09505611658096313, -0.008466710336506367, 0.02768581546843052, -0.06803207844495773, 0.15730415284633636, -0.1189086064696312, 0.036209821701049805, -0.08712710440158844, 0.02392823062837124, 0.10975044965744019, -0.04343751072883606, -0.061731018126010895, -0.0466606579720974, 0.07913006842136383, -0.05557749420404434, -0.05336025357246399, 0.1318332701921463, 0.10897406935691833, 0.19072531163692474, -0.046350523829460144, 0.1765952855348587, -0.073949433863163, 0.05810936167836189, 0.06082100793719292, 0.14015765488147736, 0.052248235791921616, -0.0919586792588234, 0.14475275576114655, 0.010651668533682823, -0.1597653478384018, -0.09869910776615143, 0.10132402181625366, -0.13445577025413513, 0.1025475412607193, -0.10897810757160187, 0.005242580082267523, 0.03800305724143982, -0.1311173141002655, -0.07083720713853836, -0.0971379280090332, 0.021475309506058693, 0.0717180073261261, 0.04432899132370949, -0.14683280885219574, -0.07843386381864548, 0.02250717021524906, 0.04783368483185768, -0.07302835583686829, 0.035556040704250336, -0.005362349562346935, -0.08369629085063934, -0.040090400725603104, 0.02268601953983307, -0.014001469127833843, 0.012649605050683022, 0.1287449449300766, -0.06261945515871048, -0.0718333050608635, -0.1353835016489029, -0.09524963051080704, -0.12250829488039017, -0.034631188958883286, -0.1330024152994156, -0.03641891852021217, 0.0045091998763382435, 0.05652495101094246, -0.17694048583507538, -0.11901669204235077, 0.019271114841103554, -0.12605217099189758, -0.1157507672905922, 0.03257211297750473, 0.0893392488360405, 0.13144513964653015, 0.13401652872562408, 0.14109370112419128, -0.06581782549619675, -0.10574258863925934, 0.12168760597705841, 0.0024568517692387104, -0.01987716183066368, -0.08628822863101959, 0.14065547287464142, 0.06797681003808975, 0.15058143436908722, -0.035942766815423965, -0.017616616562008858, 0.16969329118728638, 0.16853438317775726, 0.1516253650188446, 0.15200573205947876, 0.036524221301078796, -0.0684092566370964, 0.10566356033086777, 0.17076954245567322, -0.07360883802175522, 0.1630999743938446, -0.05816369503736496, 0.11703220009803772, -0.0413956418633461, 0.06490470468997955, 0.15973003208637238, 0.03543424233794212, 0.006524671800434589, 0.18016143143177032, 0.023132778704166412, 0.15408143401145935, -0.010355532169342041, 0.03762087598443031, -0.00346920033916831, -0.12930630147457123, 0.04514516144990921, -0.026768960058689117, 0.06727918237447739, 0.04125162586569786, 0.0023578586988151073, -0.049524229019880295, 0.028498414903879166, 0.0677870437502861, -0.0691639706492424, -0.12057249248027802, -0.052843593060970306, 0.07874137908220291, -0.06966311484575272, -0.13415852189064026, -0.03558121994137764, -0.1416843831539154, -0.05299872159957886, -0.13446199893951416, -0.030113456770777702, -0.1441120058298111, -0.06482601165771484, -0.09896904975175858, 0.005224170163273811, 0.05251394957304001, -0.020791005343198776, -0.09125809371471405, -0.1761084944009781, -0.026864105835556984, 0.1122150793671608, -0.002664295258000493, 0.04256592318415642, 0.03617214411497116, -0.006396320182830095, -0.20076361298561096, 0.03395968675613403, -0.09158994257450104, 0.01764218881726265, -0.08986245095729828, -0.09830062836408615, -0.11614719033241272, -0.04680648818612099, -0.05147577077150345, 0.07441435009241104, 0.03492823988199234, 0.06387591361999512, -0.1391923576593399, -0.08383043110370636, -0.12450762093067169, 0.01988215371966362, 0.103908009827137, -0.011793361976742744, 0.11940412223339081, -0.08773179352283478, -0.12432260066270828, 0.024602588266134262, 0.14665955305099487, -0.03772108256816864, -0.10559853166341782, 0.15162751078605652, 0.024726705625653267, 0.00644064974039793, 0.14023266732692719, 0.16849587857723236, -0.11008742451667786, -0.0560530424118042, 0.005364342592656612, 0.014402635395526886, -0.001955236541107297, -0.05770433321595192, -0.03165663778781891, 0.11286386847496033, -0.13055258989334106, 0.06883128732442856, -0.07472673058509827, -0.007357593160122633, -0.1123359277844429, 0.14142581820487976, 0.16395893692970276, 0.1654355376958847, -0.01903034746646881, 0.1386575847864151, 0.03763297200202942, -0.0897471234202385, -0.0076035382226109505, 0.0660570040345192, -0.07083980739116669, -0.0067794062197208405, -0.012269352562725544, 0.05792561545968056, 0.0285697840154171, -0.08712291717529297, 0.04593953490257263, -0.017486892640590668, 0.03944065794348717, -0.05918904393911362, -0.09571266174316406, -0.03942245990037918, -0.09799612313508987, -0.11080778390169144, -0.09725556522607803, -0.11740010976791382, -0.03555230796337128, 0.01680830679833889, 0.037223849445581436, -0.066236712038517, -0.00017798134649638087, -0.041683539748191833, -0.15655530989170074, 0.11017395555973053, 0.024364225566387177, -0.006316491402685642, -0.127951979637146, 0.09813371300697327, -0.13134907186031342, -0.13730119168758392, -0.025888286530971527, 0.061415139585733414, 0.0003969920508097857, -0.04971795529127121, -0.012960031628608704, 0.023839127272367477, -0.15086263418197632, 0.03193184733390808, -0.002745129866525531, 0.03784222900867462, -0.009615710005164146, 0.1061621904373169, 0.1484142541885376, -0.05468490719795227, -0.1350972205400467, -0.13459524512290955, 0.026142476126551628, -0.14097300171852112, 0.010562010109424591, -0.060718879103660583, -0.10097545385360718, -0.027311362326145172, -0.009101846255362034, 0.12968207895755768, -0.1012311801314354, -0.05310003459453583, -0.09720694273710251, -0.04021966829895973, -0.06915049999952316, 0.10270427912473679, 0.028610125184059143, -0.011471510864794254, -0.09929846227169037, -0.07866675406694412, -0.05800356715917587, 0.14744281768798828, 0.06957973539829254, 0.040084898471832275, 0.12436767667531967, -0.05233342945575714, 0.09012635052204132, 0.10345348715782166, 0.1707524210214615, 0.11955556273460388, -0.010797561146318913, 0.09423717856407166, 0.10798884183168411, 0.1441432684659958, -0.02975151687860489, -0.011177806183695793, 0.15839166939258575, 0.04467913880944252, -0.05999050289392471, -0.025783035904169083, 0.12326763570308685, -0.06670459359884262, 0.04325663298368454, -0.06987732648849487, 0.09402899444103241, 0.13554611802101135, 0.055235639214515686, -0.06701905280351639, -0.04769352823495865, 0.10465938597917557, -0.1415390521287918, 0.0710277259349823, -0.020358718931674957, 0.007702878210693598, -0.03201344981789589, -0.08097806572914124, -0.05633259192109108, -0.020404882729053497, 0.15508408844470978, 0.12884682416915894, 0.08635970950126648, 0.1450197398662567, 0.008135917596518993, -0.03287302702665329, 0.16796261072158813, 0.12655439972877502, -0.09091140329837799, 0.14220504462718964, 0.128462553024292, -0.02843383140861988, 0.03288827836513519, 0.12501470744609833, 0.11527145653963089, 0.18409660458564758, -0.04519598186016083, 0.1422237902879715, 0.09091610461473465, 0.18392159044742584, -0.08538464456796646, -0.01121614035218954, -0.0677541196346283, 0.05717311054468155, 0.0864187628030777, 0.08077249675989151, -0.07705526053905487, 0.10212615132331848, -0.041944753378629684, -0.12572866678237915, 0.05015556514263153, -0.06381615251302719, 0.00898184347897768, 0.05467459559440613, -0.05149741843342781, 0.11053044348955154, 0.02853112854063511, 0.12505972385406494, -0.08947159349918365, 0.0533786378800869, 0.03627576678991318, 0.03647574409842491, 0.09302296489477158, 0.10837286710739136, 0.10929600894451141, -0.12676769495010376, -0.049732740968465805, 0.13838957250118256, 0.12223854660987854, 0.12733788788318634, 0.03020784817636013, 0.07856228947639465, 0.154439315199852, 0.10763028264045715, -0.10923662781715393, 0.05777665972709656, 0.05653762072324753, 0.08066759258508682, 0.17712396383285522, -0.08356054872274399, 0.15802019834518433, 0.0826914981007576, 0.08548428863286972, 0.048433251678943634, -0.039691269397735596, -0.00782692339271307, -0.11474648118019104, -0.09405183047056198, 0.08406300097703934, -0.102615587413311, -0.013499967753887177, -0.015130443498492241, 0.05476090684533119, -0.06014489009976387, 0.09328856319189072, -0.00069807143881917, -0.14067119359970093, -0.1416456252336502, -0.1550763100385666, -0.14957371354103088, 0.028070244938135147, -0.1475202441215515, 0.07886981219053268, 0.053179237991571426, 0.04852753132581711, -0.10540538281202316, -0.10013394057750702, 0.08394569903612137, -0.059822678565979004, -0.14383332431316376, -0.033944662660360336, 0.06623595207929611, -0.1712709665298462, -0.11535852402448654, 0.03182592615485191, -0.07537981867790222, -0.13616444170475006, 0.07512036710977554, -0.16792649030685425, 0.0648069977760315, -0.13120591640472412, -0.04837620630860329, -0.13151362538337708, -0.0848909467458725, 0.09573343396186829, -0.12323997914791107, 0.014301163144409657, 0.08453737199306488, -0.10369300842285156, 0.0634506344795227, 0.14497160911560059, 0.12294681370258331, -0.05118473619222641, -0.0468810610473156, 0.08240983635187149, -0.1525474488735199, -0.08452548086643219, 0.1247062087059021, -0.08337727189064026, 0.08713981509208679, 0.1048593521118164, 0.05276978015899658, -0.14697378873825073, -0.13065628707408905, 0.07773832231760025, -0.15055535733699799, -0.1478515863418579, 0.018864117562770844, 0.05870426073670387, 0.009935044683516026, -0.09610623121261597, 0.13476353883743286, 0.11180953681468964, -0.011790690943598747, 0.10358992964029312, -0.07205580919981003, -0.11784723401069641, 0.10561663657426834, -0.1592610478401184, -0.0487576425075531, -0.13209575414657593, 0.040565088391304016, -0.025872815400362015, 0.10064171254634857, 0.09458795189857483, 0.024737829342484474, -0.04809117317199707, -0.10917432606220245, -0.09578374773263931, 0.01531173475086689, 0.09600251168012619, 0.020189153030514717, -0.037839725613594055, 0.04067043587565422, -0.08252561092376709, 0.06617119908332825, 0.13833965361118317, 0.08040063083171844, 0.0037189084105193615, 0.12973088026046753, 0.07516764849424362, -0.055040035396814346, 0.025669390335679054, -0.08447142690420151, -0.10372021794319153, -0.08870984613895416, 0.10124821215867996, -0.09632384777069092, 0.04789111018180847, 0.035699471831321716, 0.13561125099658966, -0.05133679509162903, 0.03582330048084259, 0.1619754135608673, 0.1745677888393402, 0.027255093678832054, -0.09464289247989655, 0.034391146153211594, -0.1210024505853653, -0.09751376509666443, -0.10010775923728943, -0.08771970123052597, 0.003990538418292999, 0.1395900696516037, 0.13266845047473907, -0.11401975899934769, 0.13622108101844788, 0.17498533427715302, -0.018036067485809326, -0.011425157077610493, 0.0731348991394043, 0.01891964115202427, 0.08109795302152634, 0.08833768218755722, -0.11456374824047089, -0.1114829033613205, 0.06841376423835754, 0.02411271259188652, -0.13070999085903168, 0.009158588945865631, -0.13759377598762512, -0.034340035170316696, 0.010023809969425201, 0.16265714168548584, 0.07900698482990265, 0.15866445004940033, -0.11042244732379913, 0.09576733410358429, 0.06910592317581177, -0.14018267393112183, 0.0372006893157959, 0.028263920918107033, -0.09565500169992447, -0.1106625571846962, -0.09156864881515503, 0.009131425060331821, 0.02858123555779457, 0.03846253082156181, 0.17306113243103027, 0.11831092834472656, -0.04436139389872551, 0.057870738208293915, 0.028986908495426178, -0.09451886266469955, 0.020564239472150803, 0.07295170426368713, 0.18238642811775208, 0.10160897672176361, 0.18935684859752655, -0.09654974192380905, 0.17857562005519867, 0.0030666508246213198, -0.042919646948575974, 0.1385762244462967, -0.059325385838747025, 0.030833600088953972, -0.03606485575437546, 0.0616447813808918, -0.11241765320301056, -0.12699821591377258, -0.08705370873212814, -0.12813469767570496, 0.055734552443027496, -0.09502825140953064, 0.05858909338712692, 0.10598074644804001, -0.1133459284901619, 0.0800810381770134, -0.13181240856647491, 0.030070560052990913, -0.13826966285705566, -0.11732852458953857, -0.043050218373537064, -0.11000137776136398, 0.06492249667644501, 0.03390280157327652, 0.1330326944589615, 0.011902691796422005, 0.1477767378091812, -0.10020864754915237, -0.030589956790208817, -0.13923968374729156, 0.06940999627113342, -0.13942834734916687, 0.14508365094661713, -0.036466293036937714, -0.055091578513383865, -0.003020280972123146, -0.06467680633068085, -0.11585850268602371, -0.005573082249611616, -0.049713537096977234, 0.15368033945560455, -0.07251700013875961, 0.008503715507686138, 0.12173660844564438, 0.0049484167248010635, 0.10736340284347534, 0.05530036985874176, 0.028008202090859413, -0.0568716824054718, 0.05108259990811348, -0.1303144097328186, 0.13374900817871094, -0.06286405026912689, -0.1086423248052597, -0.0950104147195816, -0.10421556234359741, -0.07537247985601425, 0.10397578030824661, 0.06752651929855347, -0.0115230493247509, -0.16225260496139526, -0.03574413061141968, 0.025268148630857468, -0.1602841317653656, -0.05676461011171341, 0.03939993679523468, -0.02480332925915718, -0.10843756794929504, -0.05254972726106644, 0.0954437255859375, 0.1308765709400177, 0.13358761370182037, -0.06542082130908966, -0.13979168236255646, -0.08983579277992249, 0.07263776659965515, 0.019888078793883324, 0.1368781179189682, -0.05960988253355026, 0.10189910978078842, 0.12891888618469238, 0.08853986114263535, -0.013124922290444374, -0.15214648842811584, -0.05640411004424095, -0.15420660376548767, 0.04248493164777756, 0.004416122566908598, -0.02148018591105938, 0.11666540801525116, 0.11704076081514359, 0.09269676357507706, -0.02547367289662361, -0.08629430085420609, 0.11109058558940887, -0.06806861609220505, 0.050614628940820694, -0.1340736597776413, -0.13885237276554108, -0.08830888569355011, 0.08825162798166275, -0.007331317290663719, 0.04913899302482605, -0.12384429574012756, -0.01755971647799015, 0.14683741331100464, 0.023906517773866653, -0.08583155274391174, 0.08536165207624435, -0.13911911845207214, -0.1321607530117035, 0.03372441977262497, -0.05702156573534012, -0.04901791363954544, -0.01581263169646263, -0.14553694427013397, -0.101845383644104, 0.01941905915737152, -0.06416855752468109, 0.12141874432563782, -0.05845410376787186, -0.0344543382525444, -0.0923435166478157, -0.013402382843196392, -0.12950275838375092, 0.08225011825561523, 0.09863360226154327, -0.06747980415821075, 0.028906594961881638, -0.0315646268427372, -0.012062642723321915, 0.013835234567523003, -0.13755933940410614, 0.045229703187942505, 0.11859163641929626, -0.09074528515338898, 0.13532698154449463, 0.00044881293433718383, 0.03420165926218033, 0.08502043038606644, -0.04672239348292351, 0.00971444882452488, 0.021276529878377914, 0.032552365213632584, -0.16168135404586792, 0.13885369896888733, 0.1351899653673172, 0.12971839308738708, -0.026864200830459595, 0.11623896658420563, -0.11578615754842758, 0.054814230650663376, -0.02631206624209881, -0.039127349853515625, 0.04662992060184479, 0.09265947341918945, 0.0295264832675457, 0.0977790579199791, -0.06989360600709915, -0.07988458126783371, -0.16164356470108032, 0.12015524506568909, 0.06157002970576286, 0.04326203837990761, 0.11889633536338806, 0.09449667483568192, -0.14764700829982758, 0.1217331811785698, -0.0009332993067800999, 0.020225290209054947, 0.007951464504003525, 0.065035380423069, -0.05268411338329315, 0.03187135234475136, 0.07578296959400177, -0.10410896688699722, -0.16517488658428192, 0.07731699198484421, 0.04976398125290871, -0.14159663021564484, 0.1187940463423729, 0.053927645087242126, -0.09104114025831223, -0.07182814925909042, 0.10411614179611206, 0.11512800306081772, 0.045688025653362274, 0.048183877021074295, 0.13840965926647186, -0.08960545063018799, 0.11569616198539734, 0.07187283039093018, 0.039346639066934586, -0.08079496771097183, -0.09577826410531998, -0.019119780510663986, 0.061939727514982224, -0.010027479380369186, 0.14222532510757446, 0.013054504990577698, -0.0007688155747018754, -0.09343593567609787, 0.116056889295578, 0.1386852264404297, 0.15061163902282715, 0.15450480580329895, -0.07392392307519913, -0.04648980870842934, 0.1756543219089508, 0.08967001736164093, -0.08178640156984329, -0.00898489449173212, -0.05363793671131134, 0.08359269797801971, -0.11142514646053314, 0.12874679267406464, 0.07616651058197021, 0.006603360176086426, 0.1180381029844284, -0.05945668742060661, -0.07240085303783417, 0.050530847162008286, 0.05289669334888458, -0.04684703052043915, 0.1144087016582489, 0.07320284098386765, -0.09964635968208313, -0.1212049201130867, -0.06711079925298691, 0.12233436852693558, 0.00010897484753513709, 0.08506995439529419, -0.11743269115686417, -0.13119374215602875, 0.06335554271936417, 0.15314310789108276, -0.11902071535587311, 0.027974039316177368, 0.17252568900585175, -0.015517611056566238, 0.09143587201833725, -0.08352161198854446, -0.02010500431060791, -0.09275379031896591, -0.017935002222657204, 0.033050909638404846, -0.07876215130090714, 0.06662343442440033, 0.11581946164369583, 0.17859071493148804, 0.0822223424911499, -0.07283888012170792, -0.044575344771146774, -0.0026029227301478386, -0.001004129066132009, 0.004510077182203531, 0.026407210156321526, 0.042555056512355804, -0.08270375430583954, 0.009296661242842674, 0.12370482087135315, 0.07077226042747498, 0.01792583428323269, -0.1270827203989029, -0.013839288614690304, 0.0761948972940445, -0.15251588821411133, -0.09697730094194412, 0.06146096810698509, -0.08091327548027039, 0.11819148063659668, -0.010609042830765247, -0.083177849650383, 0.004480582661926746, -0.0739598274230957, 0.06714101880788803, 0.08215121179819107, -0.10827093571424484, -0.0957111120223999, -0.06955763697624207, -0.15644076466560364, 0.033910851925611496, -0.023746559396386147, 0.13245254755020142, -0.13540154695510864, -0.06276413053274155, -0.13182823359966278, 0.06127319112420082, -0.17540699243545532, 0.024521810933947563, -0.14914698898792267, -0.1643703728914261, -0.15384115278720856, -0.046959809958934784, 0.1198313981294632, 0.007437587715685368, 0.01116078719496727, 0.03550262749195099, 0.04772166535258293, -0.0650513619184494, -0.06499235332012177, 0.009202884510159492, -0.009480973705649376, 0.09888394922018051, 0.026809126138687134, 0.12386542558670044, -0.02241966873407364, -0.18105670809745789, -0.14856356382369995, 0.01560353022068739, 0.08504906296730042, 0.09535081684589386, 0.00796941015869379, -0.10656280070543289, -0.047806598246097565, -0.012366114184260368, 0.02190009318292141, -0.0694229006767273, 0.01308529730886221, 0.056581225246191025, -0.011132709681987762, -0.01987585984170437, 0.08052075654268265, -0.1341637521982193, -0.12472251057624817, 0.12795597314834595, 0.03290702402591705, -0.11538862437009811, -0.17539504170417786, -0.052583057433366776, 0.035471633076667786, 0.026014162227511406, -0.16787251830101013, -0.18060050904750824, -0.0024628734681755304, -0.09084895253181458, 0.13796643912792206, 0.0498599149286747, 0.0983537957072258, -0.15005815029144287, 0.08074995130300522, 0.1079920157790184, 0.07265742123126984, 0.06701350957155228, 0.026679253205657005, 0.14292950928211212, -0.08826812356710434, 0.0473671518266201, 0.06195487454533577, 0.18184471130371094, -0.13720925152301788, 0.017585409805178642, -0.12856821715831757, -0.07217537611722946, 0.019176103174686432, 0.015257906168699265, 0.13857401907444, 0.14571137726306915, 0.02115517482161522, -0.08555949479341507, -0.11650361120700836, -0.01107534859329462, -0.05691913887858391, -0.010233326815068722, 0.08695374429225922, 0.00019951813737861812, 0.09696989506483078, 0.08453740179538727, -0.013436323963105679, 0.03416335582733154, 0.17659658193588257, 0.18781177699565887, 0.1733764111995697, 0.05622972175478935, -0.05031438544392586, 0.13905984163284302, -0.0464128777384758, 0.032637789845466614, -0.051997117698192596, -0.05769388750195503, 0.08663427084684372, -0.037939418107271194, 0.051898181438446045, 0.01674857921898365, 0.022984586656093597, -0.0267145074903965, 0.12001130729913712, 0.13146641850471497, -0.007490717805922031, 0.13420064747333527, -0.0035457953345030546, 0.15627272427082062, -0.1400928795337677, 0.07478741556406021, 0.09044206887483597, 0.06754953414201736, 0.03676882013678551, 0.13033780455589294, 0.055430080741643906, -0.053164299577474594, -0.06378771364688873, -0.13117937743663788, -0.04030187055468559, -0.10071645677089691, 0.09966963529586792, 0.10026960074901581, 0.06734216958284378, 0.03257803991436958, 0.08844392746686935, 0.09277653694152832, 0.007277949247509241, 0.12440283596515656, 0.014234351925551891, 0.1714065819978714, 0.17068800330162048, 0.1437518298625946, 0.15297754108905792, -0.08001629263162613, 0.07443714141845703, 0.12366431206464767, 0.07565534859895706, 0.1293928027153015, -0.03480909392237663, 0.038125477731227875, 0.061219826340675354, 0.14268504083156586, 0.07968611270189285, 0.11902842670679092, -0.059273283928632736, 0.06057525798678398, -0.0990172028541565, 0.006786886136978865, -0.014031093567609787, -0.1055687814950943, 0.09969984740018845, -0.06666509062051773, 0.03367321193218231, 0.07089702039957047, -0.14340198040008545, -0.11077354103326797, 0.0801355242729187, 0.1093902438879013, -0.04202956706285477, -0.11071457713842392, -0.056259240955114365, 0.12190201878547668, -0.11757838726043701, 0.02410714142024517, -0.02554689161479473, 0.06342217326164246, 0.04772098362445831, 0.08926906436681747, -0.0398341566324234, 0.08041370660066605, -0.08728156238794327, -0.06636224687099457, -0.07987681776285172, -0.15284843742847443, 0.08045686781406403, -0.13885733485221863, 0.05389227718114853, -0.1147097647190094, -0.05849997699260712, -0.130701944231987, 0.0033616055734455585, 0.06634099036455154, 0.07418901473283768, 0.0023866239935159683, 0.13209544122219086, 0.0473145991563797, 